{"learner":{"attributes":{"best_iteration":"2","best_score":"0.8432944606413995"},"feature_names":[],"feature_types":[],"gradient_booster":{"model":{"gbtree_model_param":{"num_parallel_tree":"1","num_trees":"53"},"iteration_indptr":[0,1,2,3,4,5,6,7,8,9,10,11,12,13,14,15,16,17,18,19,20,21,22,23,24,25,26,27,28,29,30,31,32,33,34,35,36,37,38,39,40,41,42,43,44,45,46,47,48,49,50,51,52,53],"tree_info":[0,0,0,0,0,0,0,0,0,0,0,0,0,0,0,0,0,0,0,0,0,0,0,0,0,0,0,0,0,0,0,0,0,0,0,0,0,0,0,0,0,0,0,0,0,0,0,0,0,0,0,0,0],"trees":[{"base_weights":[-8.663403E-3,2.1943702E-1,-1.6819652E0,5.030233E-1,-6.266522E-1,-1.800161E-2,-1.8570427E-3,7.1483403E-1,-9.631026E-1,1.5162268E-2,-9.0895647E-1,8.40554E-1,-1.0378859E0,-1.4738084E-1,-1.3927409E-2,-1.0893811E0,1.2403693E-2,1.6923828E0,6.2958217E-1,-1.2447319E-2,-1.8570427E-3,7.11138E-3,-9.567371E-3,-1.2069743E0,4.3984726E-3,1.8174678E-2,2.5900868E-3,-4.3999874E-3,8.865419E-3,-1.3533154E-2,-8.5049425E-4],"categories":[],"categories_nodes":[],"categories_segments":[],"categories_sizes":[],"default_left":[0,0,0,0,0,0,0,0,0,0,0,0,0,0,0,0,0,0,0,0,0,0,0,0,0,0,0,0,0,0,0],"id":0,"left_children":[1,3,5,7,9,-1,-1,11,13,-1,15,17,19,21,-1,23,-1,25,27,-1,-1,-1,-1,29,-1,-1,-1,-1,-1,-1,-1],"loss_changes":[4.9266872E1,2.7578915E1,2.4041138E0,2.7288767E1,1.8903149E1,0E0,0E0,1.7491123E1,3.7335672E0,0E0,1.1520119E1,1.1680386E1,7.37473E-1,4.1515894E0,0E0,4.9769573E0,0E0,1.9472847E0,1.6450994E1,0E0,0E0,0E0,0E0,3.6982002E0,0E0,0E0,0E0,0E0,0E0,0E0,0E0],"parents":[2147483647,0,0,1,1,2,2,3,3,4,4,7,7,8,8,10,10,11,11,12,12,13,13,15,15,17,17,18,18,23,23],"right_children":[2,4,6,8,10,-1,-1,12,14,-1,16,18,20,22,-1,24,-1,26,28,-1,-1,-1,-1,30,-1,-1,-1,-1,-1,-1,-1],"split_conditions":[1E0,1E0,1E0,1E0,1E0,-1.800161E-2,-1.8570427E-3,1E0,1E0,1.5162268E-2,1E0,1E0,1E0,1E0,-1.3927409E-2,1E0,1.2403693E-2,1E0,1E0,-1.2447319E-2,-1.8570427E-3,7.11138E-3,-9.567371E-3,1E0,4.3984726E-3,1.8174678E-2,2.5900868E-3,-4.3999874E-3,8.865419E-3,-1.3533154E-2,-8.5049425E-4],"split_indices":[1921,1754,214,619,650,0,0,573,301,0,693,807,1928,653,0,1090,0,84,1057,0,0,0,0,1457,0,0,0,0,0,0,0],"split_type":[0,0,0,0,0,0,0,0,0,0,0,0,0,0,0,0,0,0,0,0,0,0,0,0,0,0,0,0,0,0,0],"sum_hessian":[1.2711171E2,1.12627464E2,1.44842415E1,8.46579E1,2.796957E1,1.32356E1,1.2486415E0,7.441904E1,1.023886E1,2.7470114E0,2.5222559E1,6.992393E1,4.4951096E0,3.995653E0,6.2432075E0,2.372419E1,1.4983698E0,1.2486415E1,5.743751E1,3.246468E0,1.2486415E0,1.9978265E0,1.9978265E0,2.2225819E1,1.4983698E0,1.1237774E1,1.2486415E0,1.0988046E1,4.6449467E1,1.9478807E1,2.7470114E0],"tree_param":{"num_deleted":"0","num_feature":"2048","num_nodes":"31","size_leaf_vector":"1"}},{"base_weights":[-5.9803044E-3,5.2451533E-1,-4.4457063E-1,1.3805422E0,1.3630906E-1,-2.0461187E-1,-1.6637826E-2,1.5111505E0,-1.907575E-3,5.017842E-1,-6.533861E-1,2.4428886E-1,-8.8121206E-1,1.6625006E0,-1.8646534E-3,8.7074333E-1,-8.6700195E-1,1.3098862E-2,-1.0662804E0,-1.1318829E0,6.580525E-1,-1.0455109E0,1.1530212E-2,1.7697308E-2,2.5617457E-3,1.1841875E0,-7.7259684E-1,-1.2006579E-2,-2.3777741E-1,-6.901388E-1,-1.4978056E-2,-1.3407862E-2,-2.8441327E-3,8.268816E-1,-1.2238053E-2,-1.1810917E0,6.9889096E-3,1.5092033E-2,-4.527871E-3,-1.165291E-2,-1.3426164E-3,2.575265E-3,-6.2739933E-3,-1.2975005E-3,-1.37359E-2,1.0093039E-2,-9.538651E-3,-1.2841852E-2,2.6006692E-3],"categories":[],"categories_nodes":[],"categories_segments":[],"categories_sizes":[],"default_left":[0,0,0,0,0,0,0,0,0,0,0,0,0,0,0,0,0,0,0,0,0,0,0,0,0,0,0,0,0,0,0,0,0,0,0,0,0,0,0,0,0,0,0,0,0,0,0,0,0],"id":1,"left_children":[1,3,5,7,9,11,-1,13,-1,15,17,19,21,23,-1,25,27,-1,29,31,33,35,-1,-1,-1,37,39,-1,41,43,-1,-1,-1,45,-1,47,-1,-1,-1,-1,-1,-1,-1,-1,-1,-1,-1,-1,-1],"loss_changes":[2.9400463E1,1.8818195E1,1.989453E1,3.9279594E0,1.2004796E1,1.811421E1,0E0,4.545883E0,0E0,1.5008739E1,1.21251335E1,2.1362993E1,9.133736E0,1.8444786E0,0E0,1.2623173E1,1.077805E0,0E0,8.3069897E-1,1.165618E0,1.0057773E1,6.140526E0,0E0,0E0,0E0,1.1049728E1,9.0793943E-1,0E0,8.364456E-1,2.8824916E0,0E0,0E0,0E0,9.64415E0,0E0,3.4873428E0,0E0,0E0,0E0,0E0,0E0,0E0,0E0,0E0,0E0,0E0,0E0,0E0,0E0],"parents":[2147483647,0,0,1,1,2,2,3,3,4,4,5,5,7,7,9,9,10,10,11,11,12,12,13,13,15,15,16,16,18,18,19,19,20,20,21,21,25,25,26,26,28,28,29,29,33,33,35,35],"right_children":[2,4,6,8,10,12,-1,14,-1,16,18,20,22,24,-1,26,28,-1,30,32,34,36,-1,-1,-1,38,40,-1,42,44,-1,-1,-1,46,-1,48,-1,-1,-1,-1,-1,-1,-1,-1,-1,-1,-1,-1,-1],"split_conditions":[1E0,1E0,1E0,1E0,1E0,1E0,-1.6637826E-2,1E0,-1.907575E-3,1E0,1E0,1E0,1E0,1E0,-1.8646534E-3,1E0,1E0,1.3098862E-2,1E0,1E0,1E0,1E0,1.1530212E-2,1.7697308E-2,2.5617457E-3,1E0,1E0,-1.2006579E-2,1E0,1E0,-1.4978056E-2,-1.3407862E-2,-2.8441327E-3,1E0,-1.2238053E-2,1E0,6.9889096E-3,1.5092033E-2,-4.527871E-3,-1.165291E-2,-1.3426164E-3,2.575265E-3,-6.2739933E-3,-1.2975005E-3,-1.37359E-2,1.0093039E-2,-9.538651E-3,-1.2841852E-2,2.6006692E-3],"split_indices":[1019,80,1602,1980,1171,389,0,1733,0,675,807,926,802,715,0,1430,1585,0,935,1750,464,498,0,0,0,486,1947,0,1737,573,0,0,0,710,0,464,0,0,0,0,0,0,0,0,0,0,0,0,0],"split_type":[0,0,0,0,0,0,0,0,0,0,0,0,0,0,0,0,0,0,0,0,0,0,0,0,0,0,0,0,0,0,0,0,0,0,0,0,0,0,0,0,0,0,0,0,0,0,0,0,0],"sum_hessian":[1.2435888E2,5.6193855E1,6.816502E1,1.6735184E1,3.945867E1,5.793115E1,1.0233873E1,1.548623E1,1.2489538E0,2.7223892E1,1.2234779E1,3.520969E1,2.272146E1,1.4237571E1,1.248659E0,2.1730303E1,5.4935904E0,1.7484792E0,1.04862995E1,7.7379165E0,2.7471771E1,2.1473179E1,1.248282E0,1.2988788E1,1.2487838E0,1.8484118E1,3.246185E0,2.9964964E0,2.497094E0,6.9914565E0,3.4948435E0,5.740711E0,1.9972051E0,2.5724525E1,1.7472472E0,2.0224209E1,1.2489693E0,1.5487233E1,2.9968843E0,1.4986948E0,1.7474902E0,1.2487124E0,1.2483814E0,4.4953694E0,2.4960868E0,2.3727098E1,1.9974264E0,1.89757E1,1.248509E0],"tree_param":{"num_deleted":"0","num_feature":"2048","num_nodes":"49","size_leaf_vector":"1"}},{"base_weights":[-4.8235927E-2,1.2820418E-1,-1.4362837E0,3.6109555E-1,-1.0406977E0,-1.6106686E-2,4.4549737E-4,5.574649E-1,-1.028025E0,-1.2072395E0,5.3435974E-2,8.190651E-1,-6.8906766E-1,-1.196205E0,2.501263E-3,-1.3147153E0,-2.7610913E-3,-6.2378785E-3,7.067919E-3,9.2462826E-1,-7.4906766E-1,1.2525894E-1,-1.2686243E0,-1.4006346E-3,-1.380986E-2,-4.4559884E-1,-1.4986826E0,1.0278161E-2,-9.454874E-3,2.219007E-3,-1.3400447E-2,6.493558E-3,-7.1972515E-3,-1.5324543E-2,2.9653747E-4,6.9371304E-3,-1.2164253E-2,-1.6173385E-2,-6.131771E-3],"categories":[],"categories_nodes":[],"categories_segments":[],"categories_sizes":[],"default_left":[0,0,0,0,0,0,0,0,0,0,0,0,0,0,0,0,0,0,0,0,0,0,0,0,0,0,0,0,0,0,0,0,0,0,0,0,0,0,0],"id":2,"left_children":[1,3,5,7,9,-1,-1,11,13,15,17,19,21,23,-1,25,-1,-1,-1,27,29,31,33,-1,-1,35,37,-1,-1,-1,-1,-1,-1,-1,-1,-1,-1,-1,-1],"loss_changes":[3.1433681E1,3.1443789E1,3.8089714E0,2.6734692E1,3.5664234E0,0E0,0E0,2.8176996E1,2.928176E0,1.3104038E0,1.987948E0,1.2354008E1,7.347222E0,1.9495506E0,0E0,1.6866341E0,0E0,0E0,0E0,1.379491E1,3.1639328E0,3.6749592E0,3.1240969E0,0E0,0E0,4.3528275E0,2.4075317E-1,0E0,0E0,0E0,0E0,0E0,0E0,0E0,0E0,0E0,0E0,0E0,0E0],"parents":[2147483647,0,0,1,1,2,2,3,3,4,4,7,7,8,8,9,9,10,10,11,11,12,12,13,13,15,15,19,19,20,20,21,21,22,22,25,25,26,26],"right_children":[2,4,6,8,10,-1,-1,12,14,16,18,20,22,24,-1,26,-1,-1,-1,28,30,32,34,-1,-1,36,38,-1,-1,-1,-1,-1,-1,-1,-1,-1,-1,-1,-1],"split_conditions":[1E0,1E0,1E0,1E0,1E0,-1.6106686E-2,4.4549737E-4,1E0,1E0,1E0,1E0,1E0,1E0,1E0,2.501263E-3,1E0,-2.7610913E-3,-6.2378785E-3,7.067919E-3,1E0,1E0,1E0,1E0,-1.4006346E-3,-1.380986E-2,1E0,1E0,1.0278161E-2,-9.454874E-3,2.219007E-3,-1.3400447E-2,6.493558E-3,-7.1972515E-3,-1.5324543E-2,2.9653747E-4,6.9371304E-3,-1.2164253E-2,-1.6173385E-2,-6.131771E-3],"split_indices":[1921,1066,1279,878,881,0,0,675,1060,798,79,1104,1152,1019,0,1152,0,0,0,1013,378,1028,1214,0,0,1114,523,0,0,0,0,0,0,0,0,0,0,0,0],"split_type":[0,0,0,0,0,0,0,0,0,0,0,0,0,0,0,0,0,0,0,0,0,0,0,0,0,0,0,0,0,0,0,0,0,0,0,0,0,0,0],"sum_hessian":[1.2659743E2,1.13125275E2,1.3472153E1,9.490711E1,1.8218159E1,1.197436E1,1.4977926E0,8.3677025E1,1.1230087E1,1.5721728E1,2.4964316E0,6.944588E1,1.423115E1,9.980906E0,1.2491813E0,1.3725505E1,1.9962234E0,1.2480472E0,1.2483845E0,6.545028E1,3.995601E0,6.2430296E0,7.9881196E0,1.747994E0,8.232912E0,2.9955938E0,1.0729911E1,6.2454605E1,2.9956717E0,1.7480669E0,2.247534E0,3.99603E0,2.2469995E0,6.489067E0,1.4990528E0,1.2492269E0,1.7463669E0,8.733219E0,1.9966916E0],"tree_param":{"num_deleted":"0","num_feature":"2048","num_nodes":"39","size_leaf_vector":"1"}},{"base_weights":[4.136493E-2,2.359382E-1,-1.446854E0,5.526443E-1,-6.7358595E-1,-1.6824836E-2,2.3486665E-3,7.223056E-1,-1.0965565E0,1.488885E-2,-9.420373E-1,8.171164E-1,-1.4062397E-2,2.5580348E-3,-1.3653377E-2,-1.0912496E0,5.1783165E-3,8.813548E-1,-1.2268941E-2,-1.2135801E0,7.111186E-3,1.1233509E-2,1.7436544E-3,-1.3058401E-2,2.6844228E-3],"categories":[],"categories_nodes":[],"categories_segments":[],"categories_sizes":[],"default_left":[0,0,0,0,0,0,0,0,0,0,0,0,0,0,0,0,0,0,0,0,0,0,0,0,0],"id":3,"left_children":[1,3,5,7,9,-1,-1,11,13,-1,15,17,-1,-1,-1,19,-1,21,-1,23,-1,-1,-1,-1,-1],"loss_changes":[3.80816E1,3.382171E1,6.4223213E0,2.5045742E1,1.9075016E1,0E0,0E0,1.7131927E1,3.43258E0,0E0,6.597494E0,1.1119946E1,0E0,0E0,0E0,6.473667E0,0E0,1.2585407E1,0E0,3.6593132E0,0E0,0E0,0E0,0E0,0E0],"parents":[2147483647,0,0,1,1,2,2,3,3,4,4,7,7,8,8,10,10,11,11,15,15,17,17,19,19],"right_children":[2,4,6,8,10,-1,-1,12,14,-1,16,18,-1,-1,-1,20,-1,22,-1,24,-1,-1,-1,-1,-1],"split_conditions":[1E0,1E0,1E0,1E0,1E0,-1.6824836E-2,2.3486665E-3,1E0,1E0,1.488885E-2,1E0,1E0,-1.4062397E-2,2.5580348E-3,-1.3653377E-2,1E0,5.1783165E-3,1E0,-1.2268941E-2,1E0,7.111186E-3,1.1233509E-2,1.7436544E-3,-1.3058401E-2,2.6844228E-3],"split_indices":[1921,1754,1923,301,650,0,0,753,314,0,1585,1149,0,0,0,850,0,389,0,606,0,0,0,0,0],"split_type":[0,0,0,0,0,0,0,0,0,0,0,0,0,0,0,0,0,0,0,0,0,0,0,0,0],"sum_hessian":[1.2933304E2,1.1512305E2,1.4209997E1,8.568054E1,2.9442505E1,1.24632845E1,1.7467123E0,7.819797E1,7.482576E0,2.7493458E0,2.669316E1,7.54532E1,2.744761E0,1.2485977E0,6.2339783E0,2.4446955E1,2.2462058E0,7.370562E1,1.7475836E0,2.3199059E1,1.2478952E0,5.4471573E1,1.9234045E1,2.1951403E1,1.247656E0],"tree_param":{"num_deleted":"0","num_feature":"2048","num_nodes":"25","size_leaf_vector":"1"}},{"base_weights":[-5.429318E-3,1.908623E-1,-1.5555377E0,3.4414998E-1,-1.348186E0,-1.7414236E-2,5.0286367E-4,7.468195E-1,-3.1804875E-1,-1.4828582E-2,-1.8098142E-3,8.568666E-1,-1.188883E-2,3.1088686E-1,-8.4959936E-1,9.585473E-1,-1.3254745E-2,7.8095233E-1,-8.1161934E-1,-1.0643741E0,6.188642E-3,1.2025071E-2,1.4347285E-3,9.578776E-3,-1.1286043E-3,-1.4372762E-2,2.08077E-3,-1.2199271E-2,7.0313816E-3],"categories":[],"categories_nodes":[],"categories_segments":[],"categories_sizes":[],"default_left":[0,0,0,0,0,0,0,0,0,0,0,0,0,0,0,0,0,0,0,0,0,0,0,0,0,0,0,0,0],"id":4,"left_children":[1,3,5,7,9,-1,-1,11,13,-1,-1,15,-1,17,19,21,-1,23,25,27,-1,-1,-1,-1,-1,-1,-1,-1,-1],"loss_changes":[3.9795864E1,2.785726E1,4.475563E0,2.8607014E1,1.4168148E0,0E0,0E0,1.5176006E1,1.394846E1,0E0,0E0,1.5353859E1,0E0,1.0913052E1,7.739765E0,1.2001053E1,0E0,2.360094E0,4.2803345E0,6.3441677E0,0E0,0E0,0E0,0E0,0E0,0E0,0E0,0E0,0E0],"parents":[2147483647,0,0,1,1,2,2,3,3,4,4,7,7,8,8,11,11,13,13,14,14,15,15,17,17,18,18,19,19],"right_children":[2,4,6,8,10,-1,-1,12,14,-1,-1,16,-1,18,20,22,-1,24,26,28,-1,-1,-1,-1,-1,-1,-1,-1,-1],"split_conditions":[1E0,1E0,1E0,1E0,1E0,-1.7414236E-2,5.0286367E-4,1E0,1E0,-1.4828582E-2,-1.8098142E-3,1E0,-1.188883E-2,1E0,1E0,1E0,-1.3254745E-2,1E0,1E0,1E0,6.188642E-3,1.2025071E-2,1.4347285E-3,9.578776E-3,-1.1286043E-3,-1.4372762E-2,2.08077E-3,-1.2199271E-2,7.0313816E-3],"split_indices":[1921,301,1825,389,45,0,0,1224,1152,0,0,116,0,653,881,1171,0,1791,744,1206,0,0,0,0,0,0,0,0,0],"split_type":[0,0,0,0,0,0,0,0,0,0,0,0,0,0,0,0,0,0,0,0,0,0,0,0,0,0,0,0,0],"sum_hessian":[1.2881412E2,1.15114006E2,1.3700119E1,1.05393326E2,9.720682E0,1.2203078E1,1.4970402E0,6.54604E1,3.993292E1,8.472669E0,1.2480135E0,6.2466442E1,2.9939594E0,1.8481075E1,2.1451845E1,6.022135E1,2.2450924E0,1.3240644E1,5.2404304E0,1.8954739E1,2.4971066E0,4.5982887E1,1.4238464E1,1.0992971E1,2.2476733E0,2.9939272E0,2.246503E0,1.7706274E1,1.2484658E0],"tree_param":{"num_deleted":"0","num_feature":"2048","num_nodes":"29","size_leaf_vector":"1"}},{"base_weights":[2.2675993E-2,4.9992073E-1,-3.80401E-1,1.4655136E0,1.894835E-1,-5.463955E-1,1.5185154E-2,1.7097125E0,-6.256287E-3,3.6227247E-1,-1.3277131E-2,-3.1922632E-1,-1.6972737E-2,1.8322706E-2,6.8014693E-3,5.1557213E-1,-1.0560099E0,-5.892352E-1,8.553352E-1,7.545091E-1,-7.4781126E-1,-1.3290092E-2,-1.9221865E-3,-7.7090573E-1,1.175291E0,1.2263758E0,-4.0805116E-3,9.477181E-3,-5.377877E-3,-1.1412936E-2,-1.9180006E-3,-9.077461E-3,1.35143455E-2,1.3997088E-2,4.133967E-3,1.4691485E-2,3.1160942E-4],"categories":[],"categories_nodes":[],"categories_segments":[],"categories_sizes":[],"default_left":[0,0,0,0,0,0,0,0,0,0,0,0,0,0,0,0,0,0,0,0,0,0,0,0,0,0,0,0,0,0,0,0,0,0,0,0,0],"id":5,"left_children":[1,3,5,7,9,11,-1,13,-1,15,-1,17,-1,-1,-1,19,21,23,25,27,29,-1,-1,31,33,35,-1,-1,-1,-1,-1,-1,-1,-1,-1,-1,-1],"loss_changes":[2.5299726E1,1.776715E1,2.331407E1,8.472504E0,1.2724052E1,1.6800455E1,0E0,4.2554092E-1,0E0,9.831062E0,0E0,1.8463562E1,0E0,0E0,0E0,1.2402908E1,8.043909E-1,1.5856035E1,5.653432E0,8.868643E0,1.2556057E0,0E0,0E0,1.3682161E1,2.3344517E-1,2.4922457E0,0E0,0E0,0E0,0E0,0E0,0E0,0E0,0E0,0E0,0E0,0E0],"parents":[2147483647,0,0,1,1,2,2,3,3,4,4,5,5,7,7,9,9,11,11,15,15,16,16,17,17,18,18,19,19,20,20,23,23,24,24,25,25],"right_children":[2,4,6,8,10,12,-1,14,-1,16,-1,18,-1,-1,-1,20,22,24,26,28,30,-1,-1,32,34,36,-1,-1,-1,-1,-1,-1,-1,-1,-1,-1,-1],"split_conditions":[1E0,1E0,1E0,1E0,1E0,1E0,1.5185154E-2,1E0,-6.256287E-3,1E0,-1.3277131E-2,1E0,-1.6972737E-2,1.8322706E-2,6.8014693E-3,1E0,1E0,1E0,1E0,1E0,1E0,-1.3290092E-2,-1.9221865E-3,1E0,1E0,1E0,-4.0805116E-3,9.477181E-3,-5.377877E-3,-1.1412936E-2,-1.9180006E-3,-9.077461E-3,1.35143455E-2,1.3997088E-2,4.133967E-3,1.4691485E-2,3.1160942E-4],"split_indices":[1019,807,1870,385,786,1487,0,1357,0,623,0,841,0,0,0,675,664,407,389,736,1791,0,0,782,8,750,0,0,0,0,0,0,0,0,0,0,0],"split_type":[0,0,0,0,0,0,0,0,0,0,0,0,0,0,0,0,0,0,0,0,0,0,0,0,0,0,0,0,0,0,0,0,0,0,0,0,0],"sum_hessian":[1.2952986E2,5.919843E1,7.0331436E1,1.3496798E1,4.570163E1,6.533262E1,4.9988165E0,1.2248812E1,1.2479863E0,4.1712357E1,3.9892726E0,5.562943E1,9.703187E0,1.0249117E1,1.9996945E0,3.821793E1,3.4944277E0,4.563676E1,9.992668E0,3.247827E1,5.7396564E0,2.2460053E0,1.2484224E0,4.1887276E1,3.7494855E0,7.7468195E0,2.2458484E0,2.8486017E1,3.9922552E0,2.744653E0,2.9950035E0,3.9887756E1,1.9995203E0,2.2496898E0,1.4997957E0,6.2484407E0,1.4983786E0],"tree_param":{"num_deleted":"0","num_feature":"2048","num_nodes":"37","size_leaf_vector":"1"}},{"base_weights":[7.098783E-2,6.890727E-1,-2.2504348E-1,1.1362594E0,-5.9943205E-1,8.466266E-2,-1.0673175E0,1.366849E0,-4.5320046E-1,-1.1992443E-2,3.4100246E-1,2.3582377E-1,-1.5270135E-2,8.207298E-3,-1.2318599E0,1.4470876E0,-1.8650821E-3,5.7942636E-2,-1.0468726E-2,1.1746008E-2,-8.457035E-3,4.788948E-1,-8.1453586E-1,-1.3341421E0,2.697981E-3,1.5332654E0,6.57655E-5,-1.7893226E-3,2.6914435E-3,8.931115E-1,-1.4387996E-1,6.8588266E-3,-1.0588728E0,-1.4003351E0,-1.5957878E-3,1.6244378E-2,2.0445678E-3,1.0651725E-2,-1.2030188E-2,6.8525993E-4,-1.3092199E-2,-1.4209337E-2,7.1665907E-4,-1.5053709E-2,-4.039061E-3],"categories":[],"categories_nodes":[],"categories_segments":[],"categories_sizes":[],"default_left":[0,0,0,0,0,0,0,0,0,0,0,0,0,0,0,0,0,0,0,0,0,0,0,0,0,0,0,0,0,0,0,0,0,0,0,0,0,0,0,0,0,0,0,0,0],"id":6,"left_children":[1,3,5,7,9,11,13,15,17,-1,19,21,-1,-1,23,25,-1,27,-1,-1,-1,29,31,33,-1,35,-1,-1,-1,37,39,-1,41,43,-1,-1,-1,-1,-1,-1,-1,-1,-1,-1,-1],"loss_changes":[2.3714935E1,2.4849888E1,2.2998034E1,1.2158581E1,6.87415E0,1.6228247E1,8.3684025E0,3.7278557E0,1.4989498E0,0E0,6.178921E0,1.5814783E1,0E0,0E0,3.767273E0,3.2790337E0,0E0,2.2298136E-1,0E0,0E0,0E0,1.2947032E1,5.0243382E0,1.404396E0,0E0,2.6960754E0,0E0,0E0,0E0,1.2094536E1,5.21595E0,0E0,4.389579E0,1.4529572E0,0E0,0E0,0E0,0E0,0E0,0E0,0E0,0E0,0E0,0E0,0E0],"parents":[2147483647,0,0,1,1,2,2,3,3,4,4,5,5,6,6,7,7,8,8,10,10,11,11,14,14,15,15,17,17,21,21,22,22,23,23,25,25,29,29,30,30,32,32,33,33],"right_children":[2,4,6,8,10,12,14,16,18,-1,20,22,-1,-1,24,26,-1,28,-1,-1,-1,30,32,34,-1,36,-1,-1,-1,38,40,-1,42,44,-1,-1,-1,-1,-1,-1,-1,-1,-1,-1,-1],"split_conditions":[1E0,1E0,1E0,1E0,1E0,1E0,1E0,1E0,1E0,-1.1992443E-2,1E0,1E0,-1.5270135E-2,8.207298E-3,1E0,1E0,-1.8650821E-3,1E0,-1.0468726E-2,1.1746008E-2,-8.457035E-3,1E0,1E0,1E0,2.697981E-3,1E0,6.57655E-5,-1.7893226E-3,2.6914435E-3,1E0,1E0,6.8588266E-3,1E0,1E0,-1.5957878E-3,1.6244378E-2,2.0445678E-3,1.0651725E-2,-1.2030188E-2,6.8525993E-4,-1.3092199E-2,-1.4209337E-2,7.1665907E-4,-1.5053709E-2,-4.039061E-3],"split_indices":[80,1309,1171,1279,926,1037,807,338,858,0,1257,486,0,0,1167,472,0,935,0,0,0,389,1917,1506,0,1991,0,0,0,1149,1423,0,2030,981,0,0,0,0,0,0,0,0,0,0,0],"split_type":[0,0,0,0,0,0,0,0,0,0,0,0,0,0,0,0,0,0,0,0,0,0,0,0,0,0,0,0,0,0,0,0,0,0,0,0,0,0,0,0,0,0,0,0,0],"sum_hessian":[1.2776179E2,4.0944958E1,8.681683E1,3.048354E1,1.0461419E1,6.413406E1,2.2682766E1,2.6743765E1,3.7397745E0,6.2194386E0,4.241981E0,5.9415127E1,4.7189403E0,1.4986384E0,2.1184128E1,2.5495222E1,1.2485423E0,2.4944708E0,1.2453036E0,2.4976878E0,1.7442932E0,4.869122E1,1.0723907E1,1.993767E1,1.2464576E0,2.3995325E1,1.4998958E0,1.247791E0,1.2466798E0,2.8981266E1,1.9709953E1,1.2487146E0,9.475193E0,1.8692055E1,1.245615E0,2.224647E1,1.7488557E0,2.7237326E1,1.7439398E0,1.7467379E1,2.2425742E0,6.982233E0,2.4929602E0,1.6447517E1,2.2445374E0],"tree_param":{"num_deleted":"0","num_feature":"2048","num_nodes":"45","size_leaf_vector":"1"}},{"base_weights":[-2.0335508E-3,1.7995565E-1,-1.3487674E0,4.8455054E-1,-7.1358496E-1,-1.7010355E-2,8.660797E-2,6.948733E-1,-8.3811593E-1,-8.3510286E-1,1.1244118E-2,1.2463478E-2,-1.1109945E-2,8.145655E-1,-1.1341968E-2,-2.745261E-1,-1.380628E-2,3.728075E-1,-1.0075504E0,9.123154E-1,-8.237877E-1,7.9581773E-1,-1.2177805E-2,1.3223533E-2,-1.06067285E-2,-1.1868404E0,7.165791E-2,9.921518E-3,-8.202188E-3,-1.3188249E-2,2.5675069E-3,6.5423106E-4,1.2061106E-2,-1.3971797E-2,-4.110648E-3,8.146078E-3,-1.0355869E-2],"categories":[],"categories_nodes":[],"categories_segments":[],"categories_sizes":[],"default_left":[0,0,0,0,0,0,0,0,0,0,0,0,0,0,0,0,0,0,0,0,0,0,0,0,0,0,0,0,0,0,0,0,0,0,0,0,0],"id":7,"left_children":[1,3,5,7,9,-1,11,13,15,17,-1,-1,-1,19,-1,21,-1,23,25,27,29,31,-1,-1,-1,33,35,-1,-1,-1,-1,-1,-1,-1,-1,-1,-1],"loss_changes":[3.1729708E1,3.1388939E1,7.940048E0,2.4411299E1,7.505686E0,0E0,6.9243965E0,1.7223446E1,3.3528223E0,6.239609E0,0E0,0E0,0E0,1.2035931E1,0E0,8.273212E0,0E0,7.1832356E0,4.9038734E0,1.0076889E1,2.7418342E0,1.1179254E0,0E0,0E0,0E0,2.9198494E0,4.538066E0,0E0,0E0,0E0,0E0,0E0,0E0,0E0,0E0,0E0,0E0],"parents":[2147483647,0,0,1,1,2,2,3,3,4,4,6,6,7,7,8,8,9,9,13,13,15,15,17,17,18,18,19,19,20,20,21,21,25,25,26,26],"right_children":[2,4,6,8,10,-1,12,14,16,18,-1,-1,-1,20,-1,22,-1,24,26,28,30,32,-1,-1,-1,34,36,-1,-1,-1,-1,-1,-1,-1,-1,-1,-1],"split_conditions":[1E0,1E0,1E0,1E0,1E0,-1.7010355E-2,1E0,1E0,1E0,1E0,1.1244118E-2,1.2463478E-2,-1.1109945E-2,1E0,-1.1341968E-2,1E0,-1.380628E-2,1E0,1E0,1E0,1E0,1E0,-1.2177805E-2,1.3223533E-2,-1.06067285E-2,1E0,1E0,9.921518E-3,-8.202188E-3,-1.3188249E-2,2.5675069E-3,6.5423106E-4,1.2061106E-2,-1.3971797E-2,-4.110648E-3,8.146078E-3,-1.0355869E-2],"split_indices":[1921,1754,802,619,782,0,314,786,1160,807,0,0,0,684,0,875,0,350,881,1290,1088,1088,0,0,0,1791,319,0,0,0,0,0,0,0,0,0,0],"split_type":[0,0,0,0,0,0,0,0,0,0,0,0,0,0,0,0,0,0,0,0,0,0,0,0,0,0,0,0,0,0,0,0,0,0,0,0,0],"sum_hessian":[1.274706E2,1.130589E2,1.4411697E1,8.465796E1,2.840094E1,1.1423159E1,2.9885387E0,7.34526E1,1.1205362E1,2.7151484E1,1.2494568E0,1.4975916E0,1.4909472E0,6.946176E1,3.9908407E0,6.234581E0,4.9707813E0,3.246872E0,2.3904612E1,6.596897E1,3.4927917E0,2.9937615E0,3.2408195E0,1.9997492E0,1.2471228E0,2.0413553E1,3.4910588E0,6.3471497E1,2.4974718E0,2.2441378E0,1.2486539E0,1.4938666E0,1.4998951E0,1.5429168E1,4.9843855E0,2.2473817E0,1.2436771E0],"tree_param":{"num_deleted":"0","num_feature":"2048","num_nodes":"37","size_leaf_vector":"1"}},{"base_weights":[-3.1682674E-2,1.653476E-1,-1.4695456E0,3.2242405E-1,-1.0125923E0,-1.6410524E-2,2.8503805E-3,5.6387806E-1,-8.1529784E-1,-1.1580653E0,2.423462E-3,7.405368E-1,-1.1643014E0,-1.0097466E0,8.101118E-3,-1.3455056E0,2.9242975E-3,8.548245E-1,-7.6163226E-1,-5.828146E-1,-1.4698546E-2,-1.3320942E0,-4.0392017E-1,-1.8882102E-3,-1.4717291E-2,9.5715625E-3,-1.0084508E-2,-1.1751041E-2,4.3449664E-4,-7.0320414E-3,-1.4921929E-3,-1.4629745E-2,-2.036411E-3,6.2907697E-4,-5.36528E-3],"categories":[],"categories_nodes":[],"categories_segments":[],"categories_sizes":[],"default_left":[0,0,0,0,0,0,0,0,0,0,0,0,0,0,0,0,0,0,0,0,0,0,0,0,0,0,0,0,0,0,0,0,0,0,0],"id":8,"left_children":[1,3,5,7,9,-1,-1,11,13,15,-1,17,19,21,-1,23,-1,25,27,29,-1,31,33,-1,-1,-1,-1,-1,-1,-1,-1,-1,-1,-1,-1],"loss_changes":[3.6767113E1,2.1472134E1,5.1737022E0,2.8368992E1,2.779543E0,0E0,0E0,2.6629618E1,6.568836E0,3.7754574E0,0E0,1.3902058E1,6.031761E-1,2.7225342E0,0E0,1.3564777E0,0E0,1.4731518E1,2.0436606E0,1.2930393E-1,0E0,1.2473412E0,4.8155558E-1,0E0,0E0,0E0,0E0,0E0,0E0,0E0,0E0,0E0,0E0,0E0,0E0],"parents":[2147483647,0,0,1,1,2,2,3,3,4,4,7,7,8,8,9,9,11,11,12,12,13,13,15,15,17,17,18,18,19,19,21,21,22,22],"right_children":[2,4,6,8,10,-1,-1,12,14,16,-1,18,20,22,-1,24,-1,26,28,30,-1,32,34,-1,-1,-1,-1,-1,-1,-1,-1,-1,-1,-1,-1],"split_conditions":[1E0,1E0,1E0,1E0,1E0,-1.6410524E-2,2.8503805E-3,1E0,1E0,1E0,2.423462E-3,1E0,1E0,1E0,8.101118E-3,1E0,2.9242975E-3,1E0,1E0,1E0,-1.4698546E-2,1E0,1E0,-1.8882102E-3,-1.4717291E-2,9.5715625E-3,-1.0084508E-2,-1.1751041E-2,4.3449664E-4,-7.0320414E-3,-1.4921929E-3,-1.4629745E-2,-2.036411E-3,6.2907697E-4,-5.36528E-3],"split_indices":[1921,878,1250,675,841,0,0,1110,652,1692,0,488,140,1480,0,935,0,1141,283,345,0,1391,1057,0,0,0,0,0,0,0,0,0,0,0,0],"split_type":[0,0,0,0,0,0,0,0,0,0,0,0,0,0,0,0,0,0,0,0,0,0,0,0,0,0,0,0,0,0,0,0,0,0,0],"sum_hessian":[1.2792271E2,1.1328436E2,1.4638345E1,1.0059628E2,1.2688076E1,1.3393832E1,1.2445128E0,8.340084E1,1.7195438E1,1.1439229E1,1.2488468E0,7.618456E1,7.2162805E0,1.5696438E1,1.4990001E0,1.0194258E1,1.2449719E0,7.119859E1,4.985973E0,3.4872446E0,3.7290356E0,9.462717E0,6.2337213E0,1.2485695E0,8.945688E0,6.7952896E1,3.2456937E0,2.9905078E0,1.9954652E0,2.24274E0,1.2445047E0,8.21364E0,1.2490771E0,1.4953072E0,4.7384143E0],"tree_param":{"num_deleted":"0","num_feature":"2048","num_nodes":"35","size_leaf_vector":"1"}},{"base_weights":[3.4511708E-2,5.004501E-1,-3.4917754E-1,1.5163963E0,7.0651785E-2,-1.3765357E-1,-1.5609686E-2,1.6663039E0,-2.2337008E-3,4.814865E-1,-8.5885596E-1,7.98744E-2,-1.4202822E-2,1.7744599E-2,2.1688472E-3,7.365291E-1,-7.1350795E-1,-1.060095E0,4.2889467E-3,4.7225177E-1,-6.7380154E-1,9.7905356E-1,-5.8823305E-1,-1.22263925E-2,4.3644705E-3,2.2469634E-4,-1.2850136E0,7.4032426E-1,-1.4440651E-2,4.442959E-1,-1.0079763E0,1.1393028E-2,-5.2796034E-3,-1.04511725E-2,-9.0908376E-4,-5.0056716E-3,-1.3942058E-2,8.845945E-3,-9.502449E-3,-2.312923E-3,1.2108756E-2,-1.147114E-2,2.7319451E-3],"categories":[],"categories_nodes":[],"categories_segments":[],"categories_sizes":[],"default_left":[0,0,0,0,0,0,0,0,0,0,0,0,0,0,0,0,0,0,0,0,0,0,0,0,0,0,0,0,0,0,0,0,0,0,0,0,0,0,0,0,0,0,0],"id":9,"left_children":[1,3,5,7,9,11,-1,13,-1,15,17,19,-1,-1,-1,21,23,25,-1,27,29,31,33,-1,-1,-1,35,37,-1,39,41,-1,-1,-1,-1,-1,-1,-1,-1,-1,-1,-1,-1],"loss_changes":[2.3039625E1,2.5292446E1,1.7914383E1,4.869484E0,1.6423613E1,1.7220442E1,0E0,2.1224442E0,0E0,9.581948E0,3.8779497E0,1.6101006E1,0E0,0E0,0E0,8.601899E0,3.8910131E0,2.8807554E0,0E0,1.9401073E1,7.4290867E0,5.7914143E0,9.252609E-1,0E0,0E0,0E0,1.3424301E-1,8.637312E0,0E0,2.8661318E0,2.932189E0,0E0,0E0,0E0,0E0,0E0,0E0,0E0,0E0,0E0,0E0,0E0,0E0],"parents":[2147483647,0,0,1,1,2,2,3,3,4,4,5,5,7,7,9,9,10,10,11,11,15,15,16,16,17,17,19,19,20,20,21,21,22,22,26,26,27,27,29,29,30,30],"right_children":[2,4,6,8,10,12,-1,14,-1,16,18,20,-1,-1,-1,22,24,26,-1,28,30,32,34,-1,-1,-1,36,38,-1,40,42,-1,-1,-1,-1,-1,-1,-1,-1,-1,-1,-1,-1],"split_conditions":[1E0,1E0,1E0,1E0,1E0,1E0,-1.5609686E-2,1E0,-2.2337008E-3,1E0,1E0,1E0,-1.4202822E-2,1.7744599E-2,2.1688472E-3,1E0,1E0,1E0,4.2889467E-3,1E0,1E0,1E0,1E0,-1.22263925E-2,4.3644705E-3,2.2469634E-4,1E0,1E0,-1.4440651E-2,1E0,1E0,1.1393028E-2,-5.2796034E-3,-1.04511725E-2,-9.0908376E-4,-5.0056716E-3,-1.3942058E-2,8.845945E-3,-9.502449E-3,-2.312923E-3,1.2108756E-2,-1.147114E-2,2.7319451E-3],"split_indices":[1019,80,1487,1980,1171,1431,0,381,0,191,1270,389,0,0,0,1888,79,650,0,464,80,289,1464,0,0,0,1380,1120,0,1145,932,0,0,0,0,0,0,0,0,0,0,0,0],"split_type":[0,0,0,0,0,0,0,0,0,0,0,0,0,0,0,0,0,0,0,0,0,0,0,0,0,0,0,0,0,0,0,0,0,0,0,0,0,0,0,0,0,0,0],"sum_hessian":[1.2689714E2,5.7168938E1,6.97282E1,1.6243889E1,4.092505E1,6.031374E1,9.414459E0,1.4994139E1,1.2497498E0,2.8715178E1,1.2209871E1,5.236979E1,7.943951E0,1.374428E1,1.2498589E0,2.3980726E1,4.734451E0,1.0712583E1,1.4972881E0,3.4685364E1,1.7684427E1,2.0490488E1,3.4902384E0,3.2377584E0,1.4966922E0,1.997661E0,8.714922E0,3.096707E1,3.718293E0,3.9934435E0,1.3690984E1,1.8741589E1,1.7488986E0,1.2449989E0,2.2452395E0,1.7471957E0,6.967726E0,2.8971445E1,1.9956257E0,2.4938705E0,1.4995729E0,1.2444159E1,1.2468249E0],"tree_param":{"num_deleted":"0","num_feature":"2048","num_nodes":"43","size_leaf_vector":"1"}},{"base_weights":[3.9165787E-2,2.113732E-1,-1.3569682E0,5.056277E-1,-7.722922E-1,-1.6681341E-2,4.0969145E-3,6.7076826E-1,-1.0952181E0,-9.7881126E-1,1.0786125E-2,7.697829E-1,-1.2488829E-2,2.4204652E-3,-1.3436979E-2,-1.165972E0,1.2004246E-2,1.348646E0,3.8271618E-1,-1.2974231E0,6.74928E-3,1.4516908E-2,-6.476884E-3,6.30796E-3,-1.03642065E-2,-1.3936678E-2,3.5628895E-4],"categories":[],"categories_nodes":[],"categories_segments":[],"categories_sizes":[],"default_left":[0,0,0,0,0,0,0,0,0,0,0,0,0,0,0,0,0,0,0,0,0,0,0,0,0,0,0],"id":10,"left_children":[1,3,5,7,9,-1,-1,11,13,15,-1,17,-1,-1,-1,19,-1,21,23,25,-1,-1,-1,-1,-1,-1,-1],"loss_changes":[3.1986387E1,3.4613724E1,8.715996E0,2.4954517E1,1.16137295E1,0E0,0E0,1.686454E1,3.2981586E0,1.1748297E1,0E0,1.74496E1,0E0,0E0,0E0,6.6526794E0,0E0,7.46846E0,1.8062569E1,2.95232E0,0E0,0E0,0E0,0E0,0E0,0E0,0E0],"parents":[2147483647,0,0,1,1,2,2,3,3,4,4,7,7,8,8,9,9,11,11,15,15,17,17,18,18,19,19],"right_children":[2,4,6,8,10,-1,-1,12,14,16,-1,18,-1,-1,-1,20,-1,22,24,26,-1,-1,-1,-1,-1,-1,-1],"split_conditions":[1E0,1E0,1E0,1E0,1E0,-1.6681341E-2,4.0969145E-3,1E0,1E0,1E0,1.0786125E-2,1E0,-1.2488829E-2,2.4204652E-3,-1.3436979E-2,1E0,1.2004246E-2,1E0,1E0,1E0,6.74928E-3,1.4516908E-2,-6.476884E-3,6.30796E-3,-1.03642065E-2,-1.3936678E-2,3.5628895E-4],"split_indices":[1921,1754,802,301,1536,0,0,786,314,782,0,80,0,0,0,1047,0,1511,1855,1585,0,0,0,0,0,0,0],"split_type":[0,0,0,0,0,0,0,0,0,0,0,0,0,0,0,0,0,0,0,0,0,0,0,0,0,0,0],"sum_hessian":[1.3084824E2,1.1723623E2,1.3612008E1,9.061543E1,2.66208E1,1.1620952E1,1.9910566E0,8.266848E1,7.9469514E0,2.4372547E1,2.2482526E0,7.918324E1,3.4852343E0,1.2493124E0,6.697639E0,2.2873085E1,1.4994618E0,3.073476E1,4.8448486E1,2.1624212E1,1.2488722E0,2.9485622E1,1.2491378E0,4.1712257E1,6.7362285E0,2.012569E1,1.4985225E0],"tree_param":{"num_deleted":"0","num_feature":"2048","num_nodes":"27","size_leaf_vector":"1"}},{"base_weights":[-1.2033766E-2,1.4449339E-1,-1.3025532E0,4.342114E-1,-6.503053E-1,-1.6431587E-2,6.1370423E-3,5.663958E-1,-1.1231838E0,1.4338478E-2,-9.146799E-1,6.4933985E-1,-9.845211E-1,-1.3008464E-2,-1.9266518E-3,-1.0551337E0,1.1049574E-2,7.203151E-1,-1.2402021E-2,-1.953929E-3,-1.2488163E-2,-1.17118E0,6.8277568E-3,8.186325E-3,-7.3422943E-3,-1.2580889E-2,2.5232183E-3],"categories":[],"categories_nodes":[],"categories_segments":[],"categories_sizes":[],"default_left":[0,0,0,0,0,0,0,0,0,0,0,0,0,0,0,0,0,0,0,0,0,0,0,0,0,0,0],"id":11,"left_children":[1,3,5,7,9,-1,-1,11,13,-1,15,17,19,-1,-1,21,-1,23,-1,-1,-1,25,-1,-1,-1,-1,-1],"loss_changes":[2.4943794E1,2.5656767E1,9.725889E0,1.7384668E1,1.7752151E1,0E0,0E0,1.0371763E1,8.5704327E-1,0E0,8.850279E0,1.0605486E1,6.399236E-1,0E0,0E0,6.0109577E0,0E0,1.0673023E1,0E0,0E0,0E0,3.3596725E0,0E0,0E0,0E0,0E0,0E0],"parents":[2147483647,0,0,1,1,2,2,3,3,4,4,7,7,8,8,10,10,11,11,12,12,15,15,17,17,21,21],"right_children":[2,4,6,8,10,-1,-1,12,14,-1,16,18,20,-1,-1,22,-1,24,-1,-1,-1,26,-1,-1,-1,-1,-1],"split_conditions":[1E0,1E0,1E0,1E0,1E0,-1.6431587E-2,6.1370423E-3,1E0,1E0,1.4338478E-2,1E0,1E0,1E0,-1.3008464E-2,-1.9266518E-3,1E0,1.1049574E-2,1E0,-1.2402021E-2,-1.953929E-3,-1.2488163E-2,1E0,6.8277568E-3,8.186325E-3,-7.3422943E-3,-1.2580889E-2,2.5232183E-3],"split_indices":[1921,1754,802,101,650,0,0,786,940,0,693,1894,1171,0,0,1132,0,623,0,0,0,841,0,0,0,0,0],"split_type":[0,0,0,0,0,0,0,0,0,0,0,0,0,0,0,0,0,0,0,0,0,0,0,0,0,0,0],"sum_hessian":[1.2155158E2,1.0919532E2,1.2356269E1,8.0357346E1,2.8837975E1,1.0612471E1,1.7437987E0,7.465711E1,5.7002277E0,2.7483406E0,2.6089634E1,7.141891E1,3.2382097E0,4.4521966E0,1.2480309E0,2.4839739E1,1.2498937E0,6.942976E1,1.9891422E0,1.2488157E0,1.9893941E0,2.359061E1,1.24913E0,6.544341E1,3.9863482E0,2.2342722E1,1.2478877E0],"tree_param":{"num_deleted":"0","num_feature":"2048","num_nodes":"27","size_leaf_vector":"1"}},{"base_weights":[1.4786496E-2,1.8242548E-1,-1.3279167E0,3.2815307E-1,-1.4347733E-2,-1.640947E-2,4.0636933E-3,6.372356E-1,-4.5493302E-1,7.3166806E-1,-1.0399151E0,1.4839381E-2,-7.395692E-1,8.036972E-1,-1.0607943E-2,-1.307396E-2,-1.9094893E-3,-8.9760983E-1,1.1892585E-2,8.634816E-3,-1.1729225E-2,-1.0069584E-2,6.9786506E-3],"categories":[],"categories_nodes":[],"categories_segments":[],"categories_sizes":[],"default_left":[0,0,0,0,0,0,0,0,0,0,0,0,0,0,0,0,0,0,0,0,0,0,0],"id":12,"left_children":[1,3,5,7,-1,-1,-1,9,11,13,15,-1,17,19,-1,-1,-1,21,-1,-1,-1,-1,-1],"loss_changes":[2.9046322E1,2.7488768E1,8.443314E0,2.5941135E1,0E0,0E0,0E0,1.2861601E1,1.7971378E1,1.0267063E1,7.689681E-1,0E0,9.398285E0,9.364021E0,0E0,0E0,0E0,5.2089653E0,0E0,0E0,0E0,0E0,0E0],"parents":[2147483647,0,0,1,1,2,2,3,3,7,7,8,8,9,9,10,10,12,12,13,13,17,17],"right_children":[2,4,6,8,-1,-1,-1,10,12,14,16,-1,18,20,-1,-1,-1,22,-1,-1,-1,-1,-1],"split_conditions":[1E0,1E0,1E0,1E0,-1.4347733E-2,-1.640947E-2,4.0636933E-3,1E0,1E0,1E0,1E0,1.4839381E-2,1E0,1E0,-1.0607943E-2,-1.307396E-2,-1.9094893E-3,1E0,1.1892585E-2,8.634816E-3,-1.1729225E-2,-1.0069584E-2,6.9786506E-3],"split_indices":[1921,1431,802,1754,0,0,0,1063,650,795,1750,0,693,266,0,0,0,828,0,0,0,0,0],"split_type":[0,0,0,0,0,0,0,0,0,0,0,0,0,0,0,0,0,0,0,0,0,0,0],"sum_hessian":[1.2696727E2,1.1364288E2,1.3324389E1,1.04980095E2,8.662788E0,1.1332709E1,1.9916798E0,7.540438E1,2.9575708E1,7.1918724E1,3.48566E0,3.2466788E0,2.632903E1,6.967067E1,2.2480562E0,2.2399428E0,1.2457173E0,2.4829252E1,1.4997779E0,6.8171906E1,1.4987592E0,2.3581894E1,1.2473581E0],"tree_param":{"num_deleted":"0","num_feature":"2048","num_nodes":"23","size_leaf_vector":"1"}},{"base_weights":[-1.1638542E-1,6.598145E-2,-1.5237522E0,3.8262084E-1,-8.301848E-1,-1.6405554E-2,-2.9796904E-3,5.87157E-1,-9.370736E-1,-4.6529543E-2,-1.3884264E0,6.9169486E-1,-1.0751633E-2,-5.486635E-1,-1.2809205E-2,4.7406888E-1,-1.1978253E-2,-1.5327799E0,2.655472E-3,8.04429E-1,-9.3118805E-1,4.3989643E-1,-1.2501398E-2,9.2303467E-1,-8.851528E-3,-1.6361907E-2,-1.644835E-3,8.742186E-3,-9.478611E-3,-3.0775166E-3,-1.2449709E-2,7.715259E-3,-1.2631823E-3,1.1511826E-2,-1.7394776E-3],"categories":[],"categories_nodes":[],"categories_segments":[],"categories_sizes":[],"default_left":[0,0,0,0,0,0,0,0,0,0,0,0,0,0,0,0,0,0,0,0,0,0,0,0,0,0,0,0,0,0,0,0,0,0,0],"id":13,"left_children":[1,3,5,7,9,-1,-1,11,13,15,17,19,-1,21,-1,23,-1,25,-1,27,29,31,-1,33,-1,-1,-1,-1,-1,-1,-1,-1,-1,-1,-1],"loss_changes":[3.2538918E1,3.2339535E1,1.5929604E0,2.324284E1,1.2962267E1,0E0,0E0,1.3499407E1,8.5531616E-1,8.612812E0,4.550724E0,1.3495323E1,0E0,5.5618935E0,0E0,6.894713E0,0E0,2.0103607E0,0E0,8.860798E0,5.927696E-1,7.9966E-1,0E0,2.1964502E0,0E0,0E0,0E0,0E0,0E0,0E0,0E0,0E0,0E0,0E0,0E0],"parents":[2147483647,0,0,1,1,2,2,3,3,4,4,7,7,8,8,9,9,10,10,11,11,13,13,15,15,17,17,19,19,20,20,21,21,23,23],"right_children":[2,4,6,8,10,-1,-1,12,14,16,18,20,-1,22,-1,24,-1,26,-1,28,30,32,-1,34,-1,-1,-1,-1,-1,-1,-1,-1,-1,-1,-1],"split_conditions":[1E0,1E0,1E0,1E0,1E0,-1.6405554E-2,-2.9796904E-3,1E0,1E0,1E0,1E0,1E0,-1.0751633E-2,1E0,-1.2809205E-2,1E0,-1.1978253E-2,1E0,2.655472E-3,1E0,1E0,1E0,-1.2501398E-2,1E0,-8.851528E-3,-1.6361907E-2,-1.644835E-3,8.742186E-3,-9.478611E-3,-3.0775166E-3,-1.2449709E-2,7.715259E-3,-1.2631823E-3,1.1511826E-2,-1.7394776E-3],"split_indices":[1921,1754,387,619,935,0,0,786,1160,231,850,684,0,875,0,2016,0,699,0,623,378,6,0,745,0,0,0,0,0,0,0,0,0,0,0],"split_type":[0,0,0,0,0,0,0,0,0,0,0,0,0,0,0,0,0,0,0,0,0,0,0,0,0,0,0,0,0,0,0,0,0,0,0],"sum_hessian":[1.2538802E2,1.1184788E2,1.3540153E1,8.307006E1,2.8777817E1,1.2053241E1,1.4869113E0,7.24035E1,1.0666557E1,1.2422523E1,1.6355293E1,6.866903E1,3.734471E0,6.2275586E0,4.438999E0,8.959434E0,3.4630895E0,1.510983E1,1.2454633E0,6.468031E1,3.9887202E0,2.7396245E0,3.4879339E0,6.9760704E0,1.9833629E0,1.3866094E1,1.2437365E0,6.268482E1,1.9954907E0,1.9986002E0,1.9901199E0,1.49904E0,1.2405846E0,5.7340975E0,1.2419732E0],"tree_param":{"num_deleted":"0","num_feature":"2048","num_nodes":"35","size_leaf_vector":"1"}},{"base_weights":[-1.3801242E-2,4.4133976E-1,-3.717021E-1,1.278422E0,8.146689E-2,-5.083629E-1,1.267985E0,1.4576602E0,-3.0020459E-4,1.2201824E0,-1.9563177E-1,-9.1834325E-1,4.6202645E-2,3.8275337E-3,1.4902691E-2,1.5612382E0,1.8864436E-3,1.6567096E-2,-6.331016E-3,-3.6675134E-1,1.0541035E-2,-1.0166388E0,1.1018206E-2,6.218799E-1,-9.0150285E-1,1.9957114E-3,1.6839735E-2,8.7273175E-1,-5.640304E-1,-1.120807E0,1.0855251E-2,8.386079E-1,-1.1243762E-2,-1.1568267E0,-1.3272713E-1,1.0463235E-2,2.335437E-3,-6.8969377E-3,1.0919981E-2,-1.3034435E-2,-1.409302E-3,1.0848405E-2,-1.0634205E-2,-1.3013402E-2,-1.7909604E-3,-5.416303E-3,2.4870918E-3],"categories":[],"categories_nodes":[],"categories_segments":[],"categories_sizes":[],"default_left":[0,0,0,0,0,0,0,0,0,0,0,0,0,0,0,0,0,0,0,0,0,0,0,0,0,0,0,0,0,0,0,0,0,0,0,0,0,0,0,0,0,0,0,0,0,0,0],"id":14,"left_children":[1,3,5,7,9,11,13,15,-1,17,19,21,23,-1,-1,25,-1,-1,-1,27,-1,29,-1,31,33,-1,-1,35,37,39,-1,41,-1,43,45,-1,-1,-1,-1,-1,-1,-1,-1,-1,-1,-1,-1],"loss_changes":[2.0658752E1,1.6717567E1,1.6548557E1,3.9651985E0,1.2898055E1,1.5100023E1,5.603466E-1,1.6411667E0,0E0,7.513129E0,7.4715223E0,8.690857E0,1.643798E1,0E0,0E0,1.9164047E0,0E0,0E0,0E0,7.7990294E0,0E0,9.291851E0,0E0,8.018808E0,2.0852594E0,0E0,0E0,2.5445533E-1,6.2441454E0,6.192257E0,0E0,9.211453E0,0E0,9.584112E-1,7.544164E-1,0E0,0E0,0E0,0E0,0E0,0E0,0E0,0E0,0E0,0E0,0E0,0E0],"parents":[2147483647,0,0,1,1,2,2,3,3,4,4,5,5,6,6,7,7,9,9,10,10,11,11,12,12,15,15,19,19,21,21,23,23,24,24,27,27,28,28,29,29,31,31,33,33,34,34],"right_children":[2,4,6,8,10,12,14,16,-1,18,20,22,24,-1,-1,26,-1,-1,-1,28,-1,30,-1,32,34,-1,-1,36,38,40,-1,42,-1,44,46,-1,-1,-1,-1,-1,-1,-1,-1,-1,-1,-1,-1],"split_conditions":[1E0,1E0,1E0,1E0,1E0,1E0,1E0,1E0,-3.0020459E-4,1E0,1E0,1E0,1E0,3.8275337E-3,1.4902691E-2,1E0,1.8864436E-3,1.6567096E-2,-6.331016E-3,1E0,1.0541035E-2,1E0,1.1018206E-2,1E0,1E0,1.9957114E-3,1.6839735E-2,1E0,1E0,1E0,1.0855251E-2,1E0,-1.1243762E-2,1E0,1E0,1.0463235E-2,2.335437E-3,-6.8969377E-3,1.0919981E-2,-1.3034435E-2,-1.409302E-3,1.0848405E-2,-1.0634205E-2,-1.3013402E-2,-1.7909604E-3,-5.416303E-3,2.4870918E-3],"split_indices":[1019,80,407,1452,807,1325,1917,472,0,305,1163,554,389,0,0,1750,0,0,0,1873,0,906,0,1120,310,0,0,1564,196,1480,0,1381,0,1910,1060,0,0,0,0,0,0,0,0,0,0,0,0],"split_type":[0,0,0,0,0,0,0,0,0,0,0,0,0,0,0,0,0,0,0,0,0,0,0,0,0,0,0,0,0,0,0,0,0,0,0,0,0,0,0,0,0,0,0,0,0,0,0],"sum_hessian":[1.2481516E2,5.4840984E1,6.997418E1,1.5720919E1,3.9120068E1,6.52277E1,4.7464814E0,1.3726534E1,1.9943845E0,6.9903483E0,3.212972E1,3.7125507E1,2.810219E1,1.4989454E0,3.247536E0,1.2477811E1,1.248723E0,5.7435627E0,1.2467853E0,2.8881647E1,3.2480724E0,3.5876606E1,1.2489015E0,1.7696423E1,1.04057665E1,1.2488353E0,1.1228975E1,3.4955626E0,2.5386084E1,3.4627544E1,1.2490616E0,1.6204988E1,1.4914348E0,7.432529E0,2.973238E0,2.2480705E0,1.2474921E0,2.4137962E1,1.2481207E0,2.8909054E1,5.7184906E0,1.4727976E1,1.4770129E0,6.187069E0,1.2454599E0,1.232264E0,1.740974E0],"tree_param":{"num_deleted":"0","num_feature":"2048","num_nodes":"47","size_leaf_vector":"1"}},{"base_weights":[5.5037655E-2,4.9313298E-1,-3.304773E-1,1.286583E0,1.3518418E-1,-4.631864E-1,1.3703619E-2,1.491062E0,-3.0676248E-2,5.299644E-1,-7.012819E-1,-6.1894155E-1,1.028506E0,1.6235363E0,6.1643434E-1,-6.9376915E-3,6.471626E-3,7.926062E-1,-5.3424305E-1,1.1726701E-2,-1.0155029E0,-7.5091934E-1,9.645712E-1,1.379538E-2,-2.4724794E-3,1.7486325E-2,3.743096E-3,-2.4319855E-3,1.1437567E-2,1.0430695E0,-8.562355E-3,-1.1670843E-2,-5.6312684E-2,-1.1761006E0,2.5228618E-3,-8.650922E-1,1.34275835E-2,1.2433103E-2,4.3182257E-3,1.2188869E-2,-2.1308863E-3,4.7789556E-3,-7.2968393E-3,-1.2908915E-2,-1.2929899E-3,-9.490358E-3,1.2117103E-2],"categories":[],"categories_nodes":[],"categories_segments":[],"categories_sizes":[],"default_left":[0,0,0,0,0,0,0,0,0,0,0,0,0,0,0,0,0,0,0,0,0,0,0,0,0,0,0,0,0,0,0,0,0,0,0,0,0,0,0,0,0,0,0,0,0,0,0],"id":15,"left_children":[1,3,5,7,9,11,-1,13,15,17,19,21,23,25,27,-1,-1,29,31,-1,33,35,37,-1,-1,-1,-1,-1,-1,39,-1,-1,41,43,-1,45,-1,-1,-1,-1,-1,-1,-1,-1,-1,-1,-1],"loss_changes":[2.1868454E1,1.7025219E1,1.6200045E1,5.084976E0,1.45211115E1,1.5672542E1,0E0,8.779564E-1,2.019328E0,8.71899E0,9.534144E0,1.3100931E1,3.2493558E0,1.4504662E0,1.975785E0,0E0,0E0,1.0890054E1,1.8918257E0,0E0,2.8764553E0,1.436331E1,2.0468187E-1,0E0,0E0,0E0,0E0,0E0,0E0,5.000538E0,0E0,0E0,2.0531113E0,1.2056484E0,0E0,1.0386177E1,0E0,0E0,0E0,0E0,0E0,0E0,0E0,0E0,0E0,0E0,0E0],"parents":[2147483647,0,0,1,1,2,2,3,3,4,4,5,5,7,7,8,8,9,9,10,10,11,11,12,12,13,13,14,14,17,17,18,18,20,20,21,21,22,22,29,29,32,32,33,33,35,35],"right_children":[2,4,6,8,10,12,-1,14,16,18,20,22,24,26,28,-1,-1,30,32,-1,34,36,38,-1,-1,-1,-1,-1,-1,40,-1,-1,42,44,-1,46,-1,-1,-1,-1,-1,-1,-1,-1,-1,-1,-1],"split_conditions":[1E0,1E0,1E0,1E0,1E0,1E0,1.3703619E-2,1E0,1E0,1E0,1E0,1E0,1E0,1E0,1E0,-6.9376915E-3,6.471626E-3,1E0,1E0,1.1726701E-2,1E0,1E0,1E0,1.379538E-2,-2.4724794E-3,1.7486325E-2,3.743096E-3,-2.4319855E-3,1.1437567E-2,1E0,-8.562355E-3,-1.1670843E-2,1E0,1E0,2.5228618E-3,1E0,1.34275835E-2,1.2433103E-2,4.3182257E-3,1.2188869E-2,-2.1308863E-3,4.7789556E-3,-7.2968393E-3,-1.2908915E-2,-1.2929899E-3,-9.490358E-3,1.2117103E-2],"split_indices":[1019,80,462,1452,1171,407,0,140,650,191,807,978,1710,45,350,0,0,640,1057,0,881,959,1114,0,0,0,0,0,0,1066,0,0,117,1991,0,554,0,0,0,0,0,0,0,0,0,0,0],"split_type":[0,0,0,0,0,0,0,0,0,0,0,0,0,0,0,0,0,0,0,0,0,0,0,0,0,0,0,0,0,0,0,0,0,0,0,0,0,0,0,0,0,0,0,0,0,0,0],"sum_hessian":[1.2751673E2,5.955728E1,6.795945E1,1.770874E1,4.184854E1,6.3715664E1,4.2437863E0,1.5214968E1,2.4937725E0,2.8679386E1,1.3169156E1,5.8221535E1,5.494128E0,1.2469961E1,2.745006E0,1.2487179E0,1.2450545E0,2.320717E1,5.472214E0,1.4987732E0,1.16703825E1,5.422772E1,3.9938178E0,4.244795E0,1.2493334E0,1.0971515E1,1.4984468E0,1.2485099E0,1.4964964E0,2.0465761E1,2.7414093E0,1.7340947E0,3.7381196E0,1.0422437E1,1.2479455E0,5.1979942E1,2.247774E0,1.7463466E0,2.2474713E0,1.7979012E1,2.4867506E0,2.2463264E0,1.491793E0,9.182337E0,1.2400999E0,5.048249E1,1.4974537E0],"tree_param":{"num_deleted":"0","num_feature":"2048","num_nodes":"47","size_leaf_vector":"1"}},{"base_weights":[1.974682E-2,1.8985006E-1,-1.28959E0,4.489339E-1,-5.8039707E-1,-1.5390396E-2,7.2934637E-3,5.923761E-1,-1.3453442E-2,1.3603253E-2,-8.2351226E-1,8.627664E-1,-7.36776E-2,-9.227393E-1,4.621675E-3,9.669325E-1,-1.26597285E-2,1.360285E-2,-4.6651182E-1,-1.0406027E0,6.937723E-2,1.0579973E-2,-7.5226035E-3,-6.388045E-3,1.0957531E-2,-1.1860098E-2,-2.9581145E-4,2.771393E-3,-1.6914783E-3],"categories":[],"categories_nodes":[],"categories_segments":[],"categories_sizes":[],"default_left":[0,0,0,0,0,0,0,0,0,0,0,0,0,0,0,0,0,0,0,0,0,0,0,0,0,0,0,0,0],"id":16,"left_children":[1,3,5,7,9,-1,-1,11,-1,-1,13,15,17,19,-1,21,-1,-1,23,25,27,-1,-1,-1,-1,-1,-1,-1,-1],"loss_changes":[2.75772E1,2.2108444E1,8.293264E0,2.2027416E1,1.4327715E1,0E0,0E0,1.3944599E1,0E0,0E0,3.679512E0,1.3397743E1,1.3690122E1,2.8793163E0,0E0,9.078716E0,0E0,0E0,5.797248E0,3.128481E0,2.1966001E-1,0E0,0E0,0E0,0E0,0E0,0E0,0E0,0E0],"parents":[2147483647,0,0,1,1,2,2,3,3,4,4,7,7,10,10,11,11,12,12,13,13,15,15,18,18,19,19,20,20],"right_children":[2,4,6,8,10,-1,-1,12,-1,-1,14,16,18,20,-1,22,-1,-1,24,26,28,-1,-1,-1,-1,-1,-1,-1,-1],"split_conditions":[1E0,1E0,1E0,1E0,1E0,-1.5390396E-2,7.2934637E-3,1E0,-1.3453442E-2,1.3603253E-2,1E0,1E0,1E0,1E0,4.621675E-3,1E0,-1.26597285E-2,1.360285E-2,1E0,1E0,1E0,1.0579973E-2,-7.5226035E-3,-6.388045E-3,1.0957531E-2,-1.1860098E-2,-2.9581145E-4,2.771393E-3,-1.6914783E-3],"split_indices":[1921,1754,214,250,650,0,0,389,0,0,129,1149,807,699,0,736,0,0,381,1045,310,0,0,0,0,0,0,0,0],"split_type":[0,0,0,0,0,0,0,0,0,0,0,0,0,0,0,0,0,0,0,0,0,0,0,0,0,0,0,0,0],"sum_hessian":[1.2171943E2,1.0848106E2,1.3238376E1,8.14884E1,2.6992655E1,1.1994138E1,1.2442375E0,7.6076385E1,5.412016E0,2.4933698E0,2.4499285E1,5.3899906E1,2.2176477E1,2.3006006E1,1.4932792E0,5.1905766E1,1.9941441E0,4.239239E0,1.7937239E1,2.0519428E1,2.4865785E0,4.96599E1,2.2458646E0,1.6687933E1,1.2493069E0,1.7788038E1,2.7313893E0,1.2424669E0,1.2441115E0],"tree_param":{"num_deleted":"0","num_feature":"2048","num_nodes":"29","size_leaf_vector":"1"}},{"base_weights":[-1.5882658E-2,-1.303212E-1,1.2117714E0,-2.663439E-2,-1.4473983E-2,1.492758E-2,-1.4888885E-3,7.1781754E-1,-2.8992188E-1,8.844793E-1,-1.1727055E-2,-2.593216E-2,-9.739237E-1,1.080347E0,-6.09509E-1,1.471745E-1,-1.3579726E-2,6.4333254E-3,-1.1645564E0,1.1975724E-2,-5.8958265E-3,2.046943E-3,-1.10004265E-2,4.8376387E-3,-7.0497696E-3,-1.3065764E-2,2.1895177E-3],"categories":[],"categories_nodes":[],"categories_segments":[],"categories_sizes":[],"default_left":[0,0,0,0,0,0,0,0,0,0,0,0,0,0,0,0,0,0,0,0,0,0,0,0,0,0,0],"id":17,"left_children":[1,3,5,7,-1,-1,-1,9,11,13,-1,15,17,19,21,23,-1,-1,25,-1,-1,-1,-1,-1,-1,-1,-1],"loss_changes":[1.7664663E1,1.5651051E1,4.3217783E0,2.128312E1,0E0,0E0,0E0,9.979053E0,1.4446152E1,8.457083E0,0E0,1.3770446E1,7.6213474E0,5.3890533E0,1.7142445E0,1.55388775E1,0E0,0E0,4.2739067E0,0E0,0E0,0E0,0E0,0E0,0E0,0E0,0E0],"parents":[2147483647,0,0,1,1,2,2,3,3,7,7,8,8,9,9,11,11,12,12,13,13,14,14,15,15,18,18],"right_children":[2,4,6,8,-1,-1,-1,10,12,14,-1,16,18,20,22,24,-1,-1,26,-1,-1,-1,-1,-1,-1,-1,-1],"split_conditions":[1E0,1E0,1E0,1E0,-1.4473983E-2,1.492758E-2,-1.4888885E-3,1E0,1E0,1E0,-1.1727055E-2,1E0,1E0,1E0,1E0,1E0,-1.3579726E-2,6.4333254E-3,1E0,1.1975724E-2,-5.8958265E-3,2.046943E-3,-1.10004265E-2,4.8376387E-3,-7.0497696E-3,-1.3065764E-2,2.1895177E-3],"split_indices":[216,1431,1013,80,0,0,0,589,1171,202,0,1487,807,387,1257,378,0,0,881,0,0,0,0,0,0,0,0],"split_type":[0,0,0,0,0,0,0,0,0,0,0,0,0,0,0,0,0,0,0,0,0,0,0,0,0,0,0],"sum_hessian":[1.236112E2,1.1388866E2,9.722544E0,1.0652287E2,7.365784E0,7.9779525E0,1.744591E0,2.737971E1,7.9143166E1,2.5650595E1,1.729114E0,5.7852837E1,2.1290327E1,2.2922268E1,2.7283275E0,5.1986404E1,5.866434E0,1.9945549E0,1.9295773E1,2.1683025E1,1.2392414E0,1.2448303E0,1.4834973E0,3.7576466E1,1.440994E1,1.754985E1,1.7459216E0],"tree_param":{"num_deleted":"0","num_feature":"2048","num_nodes":"27","size_leaf_vector":"1"}},{"base_weights":[-3.1989887E-2,1.4061686E-1,-1.3102391E0,2.7573413E-1,-1.1741332E0,-1.5951501E-2,2.5650028E-3,6.506577E-1,-3.518141E-1,-1.2861699E-2,-1.7201416E-3,7.647375E-1,-1.1923994E-2,9.8991734E-1,-5.838683E-1,8.905347E-1,-7.871729E-1,1.3243519E-2,-1.960614E-3,-6.98848E-1,1.1686548E-2,1.0039538E-2,-7.9314625E-3,-1.3935904E-2,6.3492623E-3,-8.053462E-3,1.1184173E-2],"categories":[],"categories_nodes":[],"categories_segments":[],"categories_sizes":[],"default_left":[0,0,0,0,0,0,0,0,0,0,0,0,0,0,0,0,0,0,0,0,0,0,0,0,0,0,0],"id":18,"left_children":[1,3,5,7,9,-1,-1,11,13,-1,-1,15,-1,17,19,21,23,-1,-1,25,-1,-1,-1,-1,-1,-1,-1],"loss_changes":[2.8591236E1,2.0635208E1,7.289831E0,2.4813946E1,9.96439E-1,0E0,0E0,1.4738846E1,1.2947716E1,0E0,0E0,1.2910187E1,0E0,2.7302737E0,7.7685757E0,1.1932911E1,5.386531E0,0E0,0E0,7.2876663E0,0E0,0E0,0E0,0E0,0E0,0E0,0E0],"parents":[2147483647,0,0,1,1,2,2,3,3,4,4,7,7,8,8,11,11,13,13,14,14,15,15,16,16,19,19],"right_children":[2,4,6,8,10,-1,-1,12,14,-1,-1,16,-1,18,20,22,24,-1,-1,26,-1,-1,-1,-1,-1,-1,-1],"split_conditions":[1E0,1E0,1E0,1E0,1E0,-1.5951501E-2,2.5650028E-3,1E0,1E0,-1.2861699E-2,-1.7201416E-3,1E0,-1.1923994E-2,1E0,1E0,1E0,1E0,1.3243519E-2,-1.960614E-3,1E0,1.1686548E-2,1.0039538E-2,-7.9314625E-3,-1.3935904E-2,6.3492623E-3,-8.053462E-3,1.1184173E-2],"split_indices":[1921,301,802,389,441,0,0,194,807,0,0,736,0,1476,381,1430,932,0,0,1710,0,0,0,0,0,0,0],"split_type":[0,0,0,0,0,0,0,0,0,0,0,0,0,0,0,0,0,0,0,0,0,0,0,0,0,0,0],"sum_hessian":[1.277514E2,1.13337074E2,1.4414334E1,1.0349149E2,9.845576E0,1.2181075E1,2.2332592E0,6.476272E1,3.8728783E1,8.600583E0,1.244993E0,6.1538723E1,3.2239933E0,5.228993E0,3.3499786E1,5.7318665E1,4.220058E0,3.987798E0,1.2411948E0,3.2001465E1,1.4983217E0,5.4079388E1,3.2392778E0,2.9725413E0,1.2475166E0,3.0755898E1,1.2455685E0],"tree_param":{"num_deleted":"0","num_feature":"2048","num_nodes":"27","size_leaf_vector":"1"}},{"base_weights":[4.6349924E-2,6.1284447E-1,-2.1116737E-1,9.268764E-1,-1.1612005E-2,1.10599756E-1,-9.322149E-1,1.0749465E0,-1.1677377E-2,2.9874733E-1,-1.2557509E0,1.0214184E-2,-1.151166E0,1.2304761E0,-7.090306E-3,7.1998554E-1,-2.7218252E-1,-1.534166E-3,-1.4457865E-2,-1.2767433E0,6.709796E-3,1.3252552E0,-3.5469404E-3,9.5155835E-1,-4.991095E-1,-4.48202E-1,1.2424348E-2,-1.3746086E0,2.5809288E-3,1.4277924E-2,-3.279187E-3,1.0847764E-2,-1.006748E-2,-7.609841E-3,2.4443585E-3,6.3513457E-3,-6.34282E-3,-1.4432499E-2,-1.1564196E-3],"categories":[],"categories_nodes":[],"categories_segments":[],"categories_sizes":[],"default_left":[0,0,0,0,0,0,0,0,0,0,0,0,0,0,0,0,0,0,0,0,0,0,0,0,0,0,0,0,0,0,0,0,0,0,0,0,0,0,0],"id":19,"left_children":[1,3,5,7,-1,9,11,13,-1,15,17,-1,19,21,-1,23,25,-1,-1,27,-1,29,-1,31,33,35,-1,37,-1,-1,-1,-1,-1,-1,-1,-1,-1,-1,-1],"loss_changes":[1.8429E1,2.305896E1,2.028381E1,1.1825293E1,0E0,1.6066349E1,1.2701544E1,9.848595E0,0E0,1.329286E1,1.3660259E0,0E0,6.5084534E0,4.9956665E0,0E0,9.399059E0,6.9143443E0,0E0,0E0,3.8773842E0,0E0,5.322014E0,0E0,8.112183E0,1.2962991E0,4.8576264E0,0E0,1.7519073E0,0E0,0E0,0E0,0E0,0E0,0E0,0E0,0E0,0E0,0E0,0E0],"parents":[2147483647,0,0,1,1,2,2,3,3,5,5,6,6,7,7,9,9,10,10,12,12,13,13,15,15,16,16,19,19,21,21,23,23,24,24,25,25,27,27],"right_children":[2,4,6,8,-1,10,12,14,-1,16,18,-1,20,22,-1,24,26,-1,-1,28,-1,30,-1,32,34,36,-1,38,-1,-1,-1,-1,-1,-1,-1,-1,-1,-1,-1],"split_conditions":[1E0,1E0,1E0,1E0,-1.1612005E-2,1E0,1E0,1E0,-1.1677377E-2,1E0,1E0,1.0214184E-2,1E0,1E0,-7.090306E-3,1E0,1E0,-1.534166E-3,-1.4457865E-2,1E0,6.709796E-3,1E0,-3.5469404E-3,1E0,1E0,1E0,1.2424348E-2,1E0,2.5809288E-3,1.4277924E-2,-3.279187E-3,1.0847764E-2,-1.006748E-2,-7.609841E-3,2.4443585E-3,6.3513457E-3,-6.34282E-3,-1.4432499E-2,-1.1564196E-3],"split_indices":[80,1431,1171,1475,0,1487,807,202,0,389,314,0,1651,233,0,486,1163,0,0,881,0,971,0,116,310,807,0,1597,0,0,0,0,0,0,0,0,0,0,0],"split_type":[0,0,0,0,0,0,0,0,0,0,0,0,0,0,0,0,0,0,0,0,0,0,0,0,0,0,0,0,0,0,0,0,0,0,0,0,0,0,0],"sum_hessian":[1.2444091E2,3.8458622E1,8.598229E1,3.3080433E1,5.3781867E0,6.0037292E1,2.5945E1,3.135101E1,1.729426E0,5.3457504E1,6.5797877E0,2.2453516E0,2.3699648E1,2.9122345E1,2.2286642E0,3.0611176E1,2.284633E1,1.2332737E0,5.346514E0,2.2451658E1,1.2479899E0,2.7634045E1,1.4883006E0,2.5909079E1,4.7020955E0,2.1098478E1,1.7478524E0,2.1204025E1,1.2476317E0,2.6148527E1,1.485517E0,2.4676472E1,1.2326064E0,3.4600294E0,1.2420663E0,2.7390141E0,1.8359463E1,1.9968906E1,1.2351204E0],"tree_param":{"num_deleted":"0","num_feature":"2048","num_nodes":"39","size_leaf_vector":"1"}},{"base_weights":[1.18056955E-2,4.3306312E-1,-3.7218866E-1,1.1869364E0,1.0178914E-1,-1.6158774E-1,-1.4709878E-2,1.3321464E0,8.587587E-4,6.5907997E-1,-3.912139E-1,3.0920705E-1,-8.863486E-1,-4.4625986E-4,1.4731959E0,9.7992396E-1,-3.6262372E-1,-5.7489103E-1,1.2289487E-2,-7.8060335E-1,6.321975E-1,-1.0430256E0,8.159426E-3,1.5810285E0,1.6077943E-3,1.1895936E0,-4.8485557E-3,1.984726E-3,-6.5749614E-3,-1.750268E-1,-1.33985E0,-1.0782965E-2,2.5581273E-3,8.095175E-1,-1.1534926E-2,-1.215662E0,5.8127707E-3,1.7027672E-2,4.7528055E-3,1.38709005E-2,-1.5945941E-3,3.2647043E-3,-9.435859E-3,-1.5338469E-2,-2.0977024E-3,9.795023E-3,-6.9927797E-3,-1.3709545E-2,4.068984E-3],"categories":[],"categories_nodes":[],"categories_segments":[],"categories_sizes":[],"default_left":[0,0,0,0,0,0,0,0,0,0,0,0,0,0,0,0,0,0,0,0,0,0,0,0,0,0,0,0,0,0,0,0,0,0,0,0,0,0,0,0,0,0,0,0,0,0,0,0,0],"id":20,"left_children":[1,3,5,7,9,11,-1,13,-1,15,17,19,21,-1,23,25,27,29,-1,31,33,35,-1,37,-1,39,-1,-1,-1,41,43,-1,-1,45,-1,47,-1,-1,-1,-1,-1,-1,-1,-1,-1,-1,-1,-1,-1],"loss_changes":[2.0843027E1,1.5220957E1,1.5364634E1,2.869051E0,1.2283854E1,1.9962978E1,0E0,3.25379E0,0E0,7.2126045E0,7.8047934E0,1.3067374E1,6.980358E0,0E0,1.8573914E0,5.5488977E0,1.078376E0,6.527046E0,0E0,2.9335551E0,9.833661E0,6.7308292E0,0E0,1.0314827E0,0E0,4.0716457E0,0E0,0E0,0E0,6.3466535E0,1.308918E0,0E0,0E0,7.3932533E0,0E0,5.5324516E0,0E0,0E0,0E0,0E0,0E0,0E0,0E0,0E0,0E0,0E0,0E0,0E0,0E0],"parents":[2147483647,0,0,1,1,2,2,3,3,4,4,5,5,7,7,9,9,10,10,11,11,12,12,14,14,15,15,16,16,17,17,19,19,20,20,21,21,23,23,25,25,29,29,30,30,33,33,35,35],"right_children":[2,4,6,8,10,12,-1,14,-1,16,18,20,22,-1,24,26,28,30,-1,32,34,36,-1,38,-1,40,-1,-1,-1,42,44,-1,-1,46,-1,48,-1,-1,-1,-1,-1,-1,-1,-1,-1,-1,-1,-1,-1],"split_conditions":[1E0,1E0,1E0,1E0,1E0,1E0,-1.4709878E-2,1E0,8.587587E-4,1E0,1E0,1E0,1E0,-4.4625986E-4,1E0,1E0,1E0,1E0,1.2289487E-2,1E0,1E0,1E0,8.159426E-3,1E0,1.6077943E-3,1E0,-4.8485557E-3,1.984726E-3,-6.5749614E-3,1E0,1E0,-1.0782965E-2,2.5581273E-3,1E0,-1.1534926E-2,1E0,5.8127707E-3,1.7027672E-2,4.7528055E-3,1.38709005E-2,-1.5945941E-3,3.2647043E-3,-9.435859E-3,-1.5338469E-2,-2.0977024E-3,9.795023E-3,-6.9927797E-3,-1.3709545E-2,4.068984E-3],"split_indices":[1019,80,1487,1452,1152,389,0,1750,0,675,693,926,216,0,472,932,314,486,0,1917,577,892,0,579,0,1791,0,0,0,1171,1452,0,0,736,0,1302,0,0,0,0,0,0,0,0,0,0,0,0,0],"split_type":[0,0,0,0,0,0,0,0,0,0,0,0,0,0,0,0,0,0,0,0,0,0,0,0,0,0,0,0,0,0,0,0,0,0,0,0,0,0,0,0,0,0,0,0,0,0,0,0,0],"sum_hessian":[1.2685476E2,6.043134E1,6.642342E1,1.7659971E1,4.277137E1,5.67026E1,9.720823E0,1.5416884E1,2.2430859E0,1.9918556E1,2.2852812E1,3.472141E1,2.1981188E1,1.4962014E0,1.3920683E1,1.5189511E1,4.7290463E0,2.110528E1,1.7475319E0,7.614004E0,2.7107407E1,2.0483217E1,1.4979708E0,1.2674624E1,1.2460588E0,1.3451869E1,1.7376418E0,1.7417284E0,2.9873178E0,1.4667169E1,6.4381113E0,5.883623E0,1.7303813E0,2.515606E1,1.9513463E0,1.8742752E1,1.7404648E0,1.0931214E1,1.74341E0,1.1709452E1,1.7424171E0,9.223743E0,5.443425E0,5.189889E0,1.2482221E0,2.2924168E1,2.2318926E0,1.7247126E1,1.4956255E0],"tree_param":{"num_deleted":"0","num_feature":"2048","num_nodes":"49","size_leaf_vector":"1"}},{"base_weights":[-5.6408897E-2,1.16591975E-1,-1.3006668E0,4.0098596E-1,-7.5692797E-1,-1.5887596E-2,1.1456298E-2,5.953346E-1,-8.500402E-1,1.2997229E-2,-9.8295856E-1,6.948121E-1,-1.0495795E-2,-9.883165E-1,1.9392835E-3,-1.1764178E0,6.121951E-1,7.696279E-1,-1.2854596E-2,-5.552032E-1,-1.2599973E-2,-1.3104404E0,6.8471613E-3,1.1095388E-2,-1.621647E-3,8.593608E-3,-9.314147E-3,2.4682134E-3,-1.1012444E-2,-1.443748E-2,-1.6716777E-3],"categories":[],"categories_nodes":[],"categories_segments":[],"categories_sizes":[],"default_left":[0,0,0,0,0,0,0,0,0,0,0,0,0,0,0,0,0,0,0,0,0,0,0,0,0,0,0,0,0,0,0],"id":21,"left_children":[1,3,5,7,9,-1,-1,11,13,-1,15,17,-1,19,-1,21,23,25,-1,27,-1,29,-1,-1,-1,-1,-1,-1,-1,-1,-1],"loss_changes":[2.7907967E1,2.8654245E1,1.2970968E1,2.1597223E1,1.4468515E1,0E0,0E0,1.3111383E1,1.9349136E0,0E0,8.785511E0,1.1650162E1,0E0,5.74522E-1,0E0,6.7966003E0,1.5219175E0,1.1479511E1,0E0,2.8826032E0,0E0,3.173378E0,0E0,0E0,0E0,0E0,0E0,0E0,0E0,0E0,0E0],"parents":[2147483647,0,0,1,1,2,2,3,3,4,4,7,7,8,8,10,10,11,11,13,13,15,15,16,16,17,17,19,19,21,21],"right_children":[2,4,6,8,10,-1,-1,12,14,-1,16,18,-1,20,-1,22,24,26,-1,28,-1,30,-1,-1,-1,-1,-1,-1,-1,-1,-1],"split_conditions":[1E0,1E0,1E0,1E0,1E0,-1.5887596E-2,1.1456298E-2,1E0,1E0,1.2997229E-2,1E0,1E0,-1.0495795E-2,1E0,1.9392835E-3,1E0,1E0,1E0,-1.2854596E-2,1E0,-1.2599973E-2,1E0,6.8471613E-3,1.1095388E-2,-1.621647E-3,8.593608E-3,-9.314147E-3,2.4682134E-3,-1.1012444E-2,-1.443748E-2,-1.6716777E-3],"split_indices":[1921,1754,1247,878,650,0,0,573,699,0,1163,795,0,47,0,828,310,623,0,1295,0,1365,0,0,0,0,0,0,0,0,0],"split_type":[0,0,0,0,0,0,0,0,0,0,0,0,0,0,0,0,0,0,0,0,0,0,0,0,0,0,0,0,0,0,0],"sum_hessian":[1.27944595E2,1.1312242E2,1.4822177E1,8.5746635E1,2.7375786E1,1.3574139E1,1.2480389E0,7.467058E1,1.1076055E1,2.2403796E0,2.5135405E1,7.0957E1,3.7135818E0,9.827664E0,1.2483908E0,2.2650831E1,2.484574E0,6.896289E1,1.9941058E0,4.961551E0,4.8661127E0,2.14053E1,1.2455314E0,1.2493283E0,1.235246E0,6.597729E1,2.9856076E0,2.2316651E0,2.7298863E0,1.8934666E1,2.4706337E0],"tree_param":{"num_deleted":"0","num_feature":"2048","num_nodes":"31","size_leaf_vector":"1"}},{"base_weights":[9.855239E-3,1.3601452E-1,-1.259658E0,2.812912E-1,-9.1394746E-1,-1.4688273E-2,2.572944E-3,5.24144E-1,-3.4426293E-1,-1.0405222E0,2.2623949E-3,7.4390155E-1,-4.0318733E-1,1.0809267E0,-5.9582496E-1,-1.1287946E0,-1.0995782E-3,8.517779E-1,-6.977264E-1,-6.579871E-1,1.1211239E-2,1.342214E-2,1.9306228E-3,-7.756113E-1,1.1776363E-2,-1.2545193E0,-5.983371E-3,9.554179E-3,-8.737351E-3,-1.3249136E-2,3.965401E-3,-8.176712E-3,3.64346E-3,-9.2920605E-3,1.1050421E-2,-5.1539494E-3,-1.3662667E-2],"categories":[],"categories_nodes":[],"categories_segments":[],"categories_sizes":[],"default_left":[0,0,0,0,0,0,0,0,0,0,0,0,0,0,0,0,0,0,0,0,0,0,0,0,0,0,0,0,0,0,0,0,0,0,0,0,0],"id":22,"left_children":[1,3,5,7,9,-1,-1,11,13,15,-1,17,19,21,23,25,-1,27,29,31,-1,-1,-1,33,-1,35,-1,-1,-1,-1,-1,-1,-1,-1,-1,-1,-1],"loss_changes":[2.0338371E1,1.7865396E1,4.020376E0,1.5702083E1,2.2943125E0,0E0,0E0,1.5379295E1,1.11043825E1,9.4534016E-1,0E0,9.951942E0,6.495406E0,8.387809E-1,9.025906E0,3.5238266E-2,0E0,1.0926666E1,3.777669E0,2.4742823E0,0E0,0E0,0E0,7.874055E0,0E0,7.3041916E-3,0E0,0E0,0E0,0E0,0E0,0E0,0E0,0E0,0E0,0E0,0E0],"parents":[2147483647,0,0,1,1,2,2,3,3,4,4,7,7,8,8,9,9,11,11,12,12,13,13,14,14,15,15,17,17,18,18,19,19,23,23,25,25],"right_children":[2,4,6,8,10,-1,-1,12,14,16,-1,18,20,22,24,26,-1,28,30,32,-1,-1,-1,34,-1,36,-1,-1,-1,-1,-1,-1,-1,-1,-1,-1,-1],"split_conditions":[1E0,1E0,1E0,1E0,1E0,-1.4688273E-2,2.572944E-3,1E0,1E0,1E0,2.2623949E-3,1E0,1E0,1E0,1E0,1E0,-1.0995782E-3,1E0,1E0,1E0,1.1211239E-2,1.342214E-2,1.9306228E-3,1E0,1.1776363E-2,1E0,-5.983371E-3,9.554179E-3,-8.737351E-3,-1.3249136E-2,3.965401E-3,-8.176712E-3,3.64346E-3,-9.2920605E-3,1.1050421E-2,-5.1539494E-3,-1.3662667E-2],"split_indices":[1844,878,1365,1171,841,0,0,1274,807,1692,0,1141,1884,1683,649,1663,0,1920,314,139,0,0,0,1090,0,1019,0,0,0,0,0,0,0,0,0,0,0],"split_type":[0,0,0,0,0,0,0,0,0,0,0,0,0,0,0,0,0,0,0,0,0,0,0,0,0,0,0,0,0,0,0,0,0,0,0,0,0],"sum_hessian":[1.2491738E2,1.1443785E2,1.0479527E1,1.0117148E2,1.3266372E1,9.237511E0,1.2420162E0,7.299533E1,2.8176151E1,1.2019474E1,1.2468982E0,5.9170902E1,1.3824428E1,3.7326255E0,2.4443525E1,1.0783537E1,1.2359365E0,5.54321E1,3.7388031E0,1.233147E1,1.4929576E0,2.4885445E0,1.244081E0,2.2704493E1,1.7390327E0,7.613961E0,3.1695762E0,5.271232E1,2.7197788E0,2.2426395E0,1.4961637E0,1.0838701E1,1.4927682E0,2.1457918E1,1.2465755E0,1.7370218E0,5.8769393E0],"tree_param":{"num_deleted":"0","num_feature":"2048","num_nodes":"37","size_leaf_vector":"1"}},{"base_weights":[-8.987059E-3,1.1072721E-1,-1.3768253E0,2.540138E-1,-1.2201766E0,-1.5052453E-2,-5.4448065E-3,3.7981993E-1,-9.17905E-1,-7.292078E-1,-1.5183217E-2,5.64081E-1,-5.694335E-1,-1.0666827E0,8.504203E-5,2.3551101E-3,-1.0072969E-2,7.0887995E-1,-6.1875093E-1,-7.6631767E-1,1.03082545E-2,-1.2830657E0,-7.2902313E-4,7.969468E-3,-1.3291985E-2,7.2800566E-4,-1.3705198E-2,-1.0873986E-2,-1.1799694E-3,-1.4602178E-2,-4.302892E-3],"categories":[],"categories_nodes":[],"categories_segments":[],"categories_sizes":[],"default_left":[0,0,0,0,0,0,0,0,0,0,0,0,0,0,0,0,0,0,0,0,0,0,0,0,0,0,0,0,0,0,0],"id":23,"left_children":[1,3,5,7,9,-1,-1,11,13,15,-1,17,19,21,-1,-1,-1,23,25,27,-1,29,-1,-1,-1,-1,-1,-1,-1,-1,-1],"loss_changes":[2.1276735E1,2.3107666E1,2.980938E-1,1.6382921E1,6.189289E-1,0E0,0E0,1.7623253E1,1.5025597E0,1.948664E0,0E0,1.471279E1,6.013008E0,1.9158382E0,0E0,0E0,0E0,1.447023E1,5.102991E0,3.0639095E0,0E0,5.2183056E-1,0E0,0E0,0E0,0E0,0E0,0E0,0E0,0E0,0E0],"parents":[2147483647,0,0,1,1,2,2,3,3,4,4,7,7,8,8,9,9,11,11,12,12,13,13,17,17,18,18,19,19,21,21],"right_children":[2,4,6,8,10,-1,-1,12,14,16,-1,18,20,22,-1,-1,-1,24,26,28,-1,30,-1,-1,-1,-1,-1,-1,-1,-1,-1],"split_conditions":[1E0,1E0,1E0,1E0,1E0,-1.5052453E-2,-5.4448065E-3,1E0,1E0,1E0,-1.5183217E-2,1E0,1E0,1E0,8.504203E-5,2.3551101E-3,-1.0072969E-2,1E0,1E0,1E0,1.03082545E-2,1E0,-7.2902313E-4,7.969468E-3,-1.3291985E-2,7.2800566E-4,-1.3705198E-2,-1.0873986E-2,-1.1799694E-3,-1.4602178E-2,-4.302892E-3],"split_indices":[1844,623,739,878,1104,0,0,675,699,1309,0,573,984,984,0,0,0,266,140,1480,0,1736,0,0,0,0,0,0,0,0,0],"split_type":[0,0,0,0,0,0,0,0,0,0,0,0,0,0,0,0,0,0,0,0,0,0,0,0,0,0,0,0,0,0,0],"sum_hessian":[1.2800345E2,1.18547165E2,9.456291E0,1.0775525E2,1.079191E1,7.4919415E0,1.9643494E0,9.791945E1,9.835807E0,5.379337E0,5.4125733E0,8.234173E1,1.5577718E1,8.344324E0,1.4914833E0,1.237933E0,4.141404E0,7.371806E1,8.623665E0,1.4335155E1,1.2425634E0,6.6132727E0,1.7310512E0,7.1248344E1,2.4697204E0,4.962149E0,3.661516E0,9.13419E0,5.2009645E0,4.8859715E0,1.7273011E0],"tree_param":{"num_deleted":"0","num_feature":"2048","num_nodes":"31","size_leaf_vector":"1"}},{"base_weights":[4.992327E-2,2.2678229E-1,-1.3203309E0,3.99065E-1,-6.5706927E-1,-1.5588126E-2,7.0411013E-3,5.740898E-1,-8.429621E-1,7.379744E-2,-1.0377994E0,7.417324E-1,-1.0983981E0,-9.8528725E-1,2.3149292E-3,9.7887254E-1,-7.504099E-1,-1.2484446E0,5.607686E-4,9.6867555E-1,3.017477E-2,-5.5777967E-1,-1.3806896E-2,-1.127671E0,-2.2108597E-3,1.25263715E-2,2.0725476E-3,-1.1400773E-2,-8.97262E-4,-1.3533901E0,-3.6153314E-3,1.0563248E-2,-1.2123339E-2,3.7257343E-3,-1.3397853E-2,-7.020478E-3,-9.889046E-4,-1.3177532E-2,-5.872803E-3,-1.5139628E-2,-5.129223E-3],"categories":[],"categories_nodes":[],"categories_segments":[],"categories_sizes":[],"default_left":[0,0,0,0,0,0,0,0,0,0,0,0,0,0,0,0,0,0,0,0,0,0,0,0,0,0,0,0,0,0,0,0,0,0,0,0,0,0,0,0,0],"id":24,"left_children":[1,3,5,7,9,-1,-1,11,13,15,17,19,21,23,-1,25,27,29,-1,31,33,35,-1,37,-1,-1,-1,-1,-1,39,-1,-1,-1,-1,-1,-1,-1,-1,-1,-1,-1],"loss_changes":[3.130696E1,1.7648119E1,8.229965E0,2.1390648E1,5.3644075E0,0E0,0E0,2.4616076E1,2.106554E0,6.2862597E0,2.964242E0,1.252652E1,4.716568E-1,9.516506E-1,0E0,5.813515E-1,1.0462284E0,4.950428E-1,0E0,1.2543777E1,9.802705E0,2.2644114E-1,0E0,1.5673351E-1,0E0,0E0,0E0,0E0,0E0,4.504757E-1,0E0,0E0,0E0,0E0,0E0,0E0,0E0,0E0,0E0,0E0,0E0],"parents":[2147483647,0,0,1,1,2,2,3,3,4,4,7,7,8,8,9,9,10,10,11,11,12,12,13,13,15,15,16,16,17,17,19,19,20,20,21,21,23,23,29,29],"right_children":[2,4,6,8,10,-1,-1,12,14,16,18,20,22,24,-1,26,28,30,-1,32,34,36,-1,38,-1,-1,-1,-1,-1,40,-1,-1,-1,-1,-1,-1,-1,-1,-1,-1,-1],"split_conditions":[1E0,1E0,1E0,1E0,1E0,-1.5588126E-2,7.0411013E-3,1E0,1E0,1E0,1E0,1E0,1E0,1E0,2.3149292E-3,1E0,1E0,1E0,5.607686E-4,1E0,1E0,1E0,-1.3806896E-2,1E0,-2.2108597E-3,1.25263715E-2,2.0725476E-3,-1.1400773E-2,-8.97262E-4,1E0,-3.6153314E-3,1.0563248E-2,-1.2123339E-2,3.7257343E-3,-1.3397853E-2,-7.020478E-3,-9.889046E-4,-1.3177532E-2,-5.872803E-3,-1.5139628E-2,-5.129223E-3],"split_indices":[1921,675,1100,878,1152,0,0,1110,841,1028,952,1171,140,694,0,1567,744,283,0,266,1849,32,0,971,0,0,0,0,0,461,0,0,0,0,0,0,0,0,0,0,0],"split_type":[0,0,0,0,0,0,0,0,0,0,0,0,0,0,0,0,0,0,0,0,0,0,0,0,0,0,0,0,0,0,0,0,0,0,0,0,0,0,0,0,0],"sum_hessian":[1.2694958E2,1.1317638E2,1.3773205E1,9.517341E1,1.8002962E1,1.2527457E1,1.2457471E0,8.388958E1,1.1283828E1,6.4422665E0,1.1560696E1,7.675275E1,7.1368375E0,1.0037255E1,1.2465725E0,2.9810622E0,3.4612045E0,9.575467E0,1.9852285E0,5.791885E1,1.8833897E1,3.4690795E0,3.667758E0,8.059932E0,1.9773238E0,1.7402445E0,1.2408175E0,1.7207272E0,1.7404773E0,8.092006E0,1.4834614E0,5.617691E1,1.7419363E0,1.5650385E1,3.1835117E0,2.2361734E0,1.2329059E0,4.898402E0,3.1615298E0,6.1212063E0,1.9707999E0],"tree_param":{"num_deleted":"0","num_feature":"2048","num_nodes":"41","size_leaf_vector":"1"}},{"base_weights":[-2.7462956E-2,1.333474E-1,-1.3044211E0,7.1412814E-1,-1.7048724E-1,-1.4786822E0,1.4807624E-3,1.0477378E0,-1.1353834E-2,1.509456E-1,-1.0587782E0,-4.8959446E-3,-1.5383636E-2,1.2074308E0,-4.684539E-1,3.6316457E-1,-7.830299E-1,-1.2053834E0,6.65752E-3,1.3091668E0,-6.8880646E-3,2.1243317E-3,-8.564483E-3,5.624617E-1,-8.7322587E-1,-1.0277241E0,6.149097E-3,-1.311088E0,-8.3630194E-4,1.4310812E-2,-2.7893716E-3,6.556559E-3,-1.1532259E-2,-3.7287448E-3,-1.2687858E-2,-3.8035172E-3,-1.3314243E-2,-1.3908755E-2,-1.4684831E-3],"categories":[],"categories_nodes":[],"categories_segments":[],"categories_sizes":[],"default_left":[0,0,0,0,0,0,0,0,0,0,0,0,0,0,0,0,0,0,0,0,0,0,0,0,0,0,0,0,0,0,0,0,0,0,0,0,0,0,0],"id":25,"left_children":[1,3,5,7,9,11,-1,13,-1,15,17,-1,-1,19,21,23,25,27,-1,29,-1,-1,-1,31,33,35,-1,37,-1,-1,-1,-1,-1,-1,-1,-1,-1,-1,-1],"loss_changes":[2.6630798E1,2.0474096E1,3.8898754E0,2.575087E1,2.2010937E1,1.6607285E-2,0E0,8.856903E0,0E0,1.1596094E1,5.975092E0,0E0,0E0,6.93235E0,1.2343056E0,1.2118391E1,4.3548307E0,2.1684074E0,0E0,6.2101135E0,0E0,0E0,0E0,7.3508234E0,9.008689E-1,1.3882017E0,0E0,1.4203758E0,0E0,0E0,0E0,0E0,0E0,0E0,0E0,0E0,0E0,0E0,0E0],"parents":[2147483647,0,0,1,1,2,2,3,3,4,4,5,5,7,7,9,9,10,10,13,13,14,14,15,15,16,16,17,17,19,19,23,23,24,24,25,25,27,27],"right_children":[2,4,6,8,10,12,-1,14,-1,16,18,-1,-1,20,22,24,26,28,-1,30,-1,-1,-1,32,34,36,-1,38,-1,-1,-1,-1,-1,-1,-1,-1,-1,-1,-1],"split_conditions":[1E0,1E0,1E0,1E0,1E0,1E0,1.4807624E-3,1E0,-1.1353834E-2,1E0,1E0,-4.8959446E-3,-1.5383636E-2,1E0,1E0,1E0,1E0,1E0,6.65752E-3,1E0,-6.8880646E-3,2.1243317E-3,-8.564483E-3,1E0,1E0,1E0,6.149097E-3,1E0,-8.3630194E-4,1.4310812E-2,-2.7893716E-3,6.556559E-3,-1.1532259E-2,-3.7287448E-3,-1.2687858E-2,-3.8035172E-3,-1.3314243E-2,-1.3908755E-2,-1.4684831E-3],"split_indices":[1921,80,561,1431,1171,650,0,1279,0,486,1270,0,0,1477,1088,1083,1163,794,0,2008,0,0,0,315,1918,1088,0,1243,0,0,0,0,0,0,0,0,0,0,0],"split_type":[0,0,0,0,0,0,0,0,0,0,0,0,0,0,0,0,0,0,0,0,0,0,0,0,0,0,0,0,0,0,0,0,0,0,0,0,0,0,0],"sum_hessian":[1.27839066E2,1.1433603E2,1.3503035E1,3.8806644E1,7.552939E1,1.204047E1,1.4625641E0,3.324374E1,5.5629053E0,5.6070168E1,1.9459219E1,1.2089117E0,1.0831558E1,3.026022E1,2.9835186E0,4.618673E1,9.883438E0,1.821202E1,1.2471981E0,2.9013214E1,1.247005E0,1.2472383E0,1.7362802E0,4.0244663E1,5.9420676E0,8.636536E0,1.246903E0,1.6489412E1,1.7226077E0,2.7036568E1,1.9766476E0,3.8757256E1,1.4874054E0,3.4812357E0,2.4608319E0,3.4770944E0,5.159441E0,1.524966E1,1.2397534E0],"tree_param":{"num_deleted":"0","num_feature":"2048","num_nodes":"39","size_leaf_vector":"1"}},{"base_weights":[3.3250637E-2,-1.1780827E-1,9.77581E-1,3.4586735E-2,-1.2693529E0,1.1190202E0,-1.7406642E-3,-1.769127E-1,1.0362281E0,1.8259406E-4,-1.512526E-2,1.25475E0,-2.3585632E-3,5.876496E-2,-7.437777E-1,1.2957166E0,-1.0118339E-2,1.4402132E0,4.1872212E-1,2.5151655E-1,-7.9783106E-1,-1.600487E-1,-1.0853298E0,1.4970783E0,-4.1849952E-4,1.5684227E-2,2.2980068E-3,-2.3088853E-3,1.0290303E-2,5.755543E-3,-5.624964E-3,-9.585124E-3,2.4342483E-3,3.613167E-3,-1.2374896E-2,-1.2185701E-2,-5.5774313E-4,1.608928E-2,2.2350415E-3],"categories":[],"categories_nodes":[],"categories_segments":[],"categories_sizes":[],"default_left":[0,0,0,0,0,0,0,0,0,0,0,0,0,0,0,0,0,0,0,0,0,0,0,0,0,0,0,0,0,0,0,0,0,0,0,0,0,0,0],"id":26,"left_children":[1,3,5,7,9,11,-1,13,15,-1,-1,17,-1,19,21,23,-1,25,27,29,31,33,35,37,-1,-1,-1,-1,-1,-1,-1,-1,-1,-1,-1,-1,-1,-1,-1],"loss_changes":[1.77256E1,1.8877504E1,2.9854145E0,2.046783E1,3.9632378E0,3.1266403E0,0E0,1.0719727E1,1.026016E1,0E0,0E0,1.5908566E0,0E0,9.673278E0,4.519641E0,4.206093E0,0E0,1.3730927E0,1.815079E0,1.2877489E1,2.036611E0,5.987309E0,1.9455242E0,1.5489655E0,0E0,0E0,0E0,0E0,0E0,0E0,0E0,0E0,0E0,0E0,0E0,0E0,0E0,0E0,0E0],"parents":[2147483647,0,0,1,1,2,2,3,3,4,4,5,5,7,7,8,8,11,11,13,13,14,14,15,15,17,17,18,18,19,19,20,20,21,21,22,22,23,23],"right_children":[2,4,6,8,10,12,-1,14,16,-1,-1,18,-1,20,22,24,-1,26,28,30,32,34,36,38,-1,-1,-1,-1,-1,-1,-1,-1,-1,-1,-1,-1,-1,-1,-1],"split_conditions":[1E0,1E0,1E0,1E0,1E0,1E0,-1.7406642E-3,1E0,1E0,1.8259406E-4,-1.512526E-2,1E0,-2.3585632E-3,1E0,1E0,1E0,-1.0118339E-2,1E0,1E0,1E0,1E0,1E0,1E0,1E0,-4.1849952E-4,1.5684227E-2,2.2980068E-3,-2.3088853E-3,1.0290303E-2,5.755543E-3,-5.624964E-3,-9.585124E-3,2.4342483E-3,3.613167E-3,-1.2374896E-2,-1.2185701E-2,-5.5774313E-4,1.608928E-2,2.2350415E-3],"split_indices":[1683,1487,1356,841,1257,1581,0,1754,859,0,0,841,0,619,935,694,0,599,699,1171,1980,231,908,1035,0,0,0,0,0,0,0,0,0,0,0,0,0,0,0],"split_type":[0,0,0,0,0,0,0,0,0,0,0,0,0,0,0,0,0,0,0,0,0,0,0,0,0,0,0,0,0,0,0,0,0,0,0,0,0,0,0],"sum_hessian":[1.2245247E2,1.0632029E2,1.6132177E1,9.4750946E1,1.1569342E1,1.4392853E1,1.7393233E0,7.891186E1,1.58390875E1,1.9847767E0,9.584565E0,1.3149459E1,1.2433944E0,5.6371426E1,2.2540436E1,1.4383987E1,1.4550998E0,1.0170553E1,2.9789054E0,4.6593346E1,9.778078E0,8.862533E0,1.3677904E1,1.2398258E1,1.9857297E0,8.928999E0,1.2415546E0,1.7441362E0,1.2347692E0,3.353633E1,1.30570135E1,8.539734E0,1.2383447E0,6.420402E0,2.4421306E0,1.1948053E1,1.7298504E0,1.1155248E1,1.2430099E0],"tree_param":{"num_deleted":"0","num_feature":"2048","num_nodes":"39","size_leaf_vector":"1"}},{"base_weights":[2.6420759E-2,1.9981307E-1,-1.2559927E0,4.553465E-1,-6.339229E-1,-1.4750917E-2,7.095615E-3,6.236617E-1,-7.590506E-1,1.1003307E-2,-7.754417E-1,7.3688334E-1,-1.2207291E-2,-9.554783E-1,2.006271E-3,-9.114652E-1,1.0701652E-2,8.3129483E-1,-5.460643E-1,-5.4215336E-1,-1.1796565E-2,-1.0562639E0,8.083512E-3,1.0396093E-2,1.285735E-3,3.6374289E-3,-9.536487E-3,3.2327557E-3,-8.92099E-3,-1.2052362E-2,2.4196464E-3],"categories":[],"categories_nodes":[],"categories_segments":[],"categories_sizes":[],"default_left":[0,0,0,0,0,0,0,0,0,0,0,0,0,0,0,0,0,0,0,0,0,0,0,0,0,0,0,0,0,0,0],"id":27,"left_children":[1,3,5,7,9,-1,-1,11,13,-1,15,17,-1,19,-1,21,-1,23,25,27,-1,29,-1,-1,-1,-1,-1,-1,-1,-1,-1],"loss_changes":[2.9175253E1,2.4884592E1,7.777788E0,1.8654282E1,7.602848E0,0E0,0E0,1.7327507E1,2.3177562E0,0E0,7.505866E0,9.5070915E0,0E0,2.4400711E-1,0E0,7.021593E0,0E0,1.0115688E1,2.470502E0,1.8643389E0,0E0,4.7935104E0,0E0,0E0,0E0,0E0,0E0,0E0,0E0,0E0,0E0],"parents":[2147483647,0,0,1,1,2,2,3,3,4,4,7,7,8,8,10,10,11,11,13,13,15,15,17,17,18,18,19,19,21,21],"right_children":[2,4,6,8,10,-1,-1,12,14,-1,16,18,-1,20,-1,22,-1,24,26,28,-1,30,-1,-1,-1,-1,-1,-1,-1,-1,-1],"split_conditions":[1E0,1E0,1E0,1E0,1E0,-1.4750917E-2,7.095615E-3,1E0,1E0,1.1003307E-2,1E0,1E0,-1.2207291E-2,1E0,2.006271E-3,1E0,1.0701652E-2,1E0,1E0,1E0,-1.1796565E-2,1E0,8.083512E-3,1.0396093E-2,1.285735E-3,3.6374289E-3,-9.536487E-3,3.2327557E-3,-8.92099E-3,-1.2052362E-2,2.4196464E-3],"split_indices":[1921,1754,214,878,650,0,0,753,1060,0,782,1141,0,47,0,850,0,1171,389,1480,0,473,0,0,0,0,0,0,0,0,0],"split_type":[0,0,0,0,0,0,0,0,0,0,0,0,0,0,0,0,0,0,0,0,0,0,0,0,0,0,0,0,0,0,0],"sum_hessian":[1.2907828E2,1.1444818E2,1.4630098E1,8.7946976E1,2.65012E1,1.3387347E1,1.2427512E0,7.766858E1,1.0278404E1,1.488244E0,2.5012957E1,7.374223E1,3.9263437E0,8.535687E0,1.7427161E0,2.3767412E1,1.2455442E0,6.9015465E1,4.726769E0,4.203661E0,4.332027E0,2.2277594E1,1.4898188E0,5.2864826E1,1.6150635E1,1.4956819E0,3.2310872E0,1.232314E0,2.9713469E0,2.0048635E1,2.2289584E0],"tree_param":{"num_deleted":"0","num_feature":"2048","num_nodes":"31","size_leaf_vector":"1"}},{"base_weights":[-2.2958193E-2,1.37941E-1,-1.22508E0,2.6824576E-1,-1.1868414E0,-1.3911114E0,3.2700237E-3,6.4189845E-1,-3.281512E-1,-1.3075885E-2,-1.8663674E-3,-1.5080354E-2,-3.700996E-3,7.738624E-1,-1.369441E-2,2.556105E-1,-9.1428894E-1,8.325113E-1,-1.0778561E-2,4.7681838E-1,-1.2130684E-2,-1.0597429E0,7.0244805E-3,1.045588E-2,1.6345712E-3,7.0928955E-3,-8.677665E-3,-1.1789756E-2,3.4387512E-3],"categories":[],"categories_nodes":[],"categories_segments":[],"categories_sizes":[],"default_left":[0,0,0,0,0,0,0,0,0,0,0,0,0,0,0,0,0,0,0,0,0,0,0,0,0,0,0,0,0],"id":28,"left_children":[1,3,5,7,9,11,-1,13,15,-1,-1,-1,-1,17,-1,19,21,23,-1,25,-1,27,-1,-1,-1,-1,-1,-1,-1],"loss_changes":[2.4016064E1,1.9244347E1,4.231474E0,2.2636396E1,9.6396446E-1,1.0450821E0,0E0,1.7571537E1,1.372346E1,0E0,0E0,0E0,0E0,7.306713E0,0E0,7.2495418E0,5.421959E0,8.064785E0,0E0,6.4181333E0,0E0,3.5262337E0,0E0,0E0,0E0,0E0,0E0,0E0,0E0],"parents":[2147483647,0,0,1,1,2,2,3,3,4,4,5,5,7,7,8,8,13,13,15,15,16,16,17,17,19,19,21,21],"right_children":[2,4,6,8,10,12,-1,14,16,-1,-1,-1,-1,18,-1,20,22,24,-1,26,-1,28,-1,-1,-1,-1,-1,-1,-1],"split_conditions":[1E0,1E0,1E0,1E0,1E0,1E0,3.2700237E-3,1E0,1E0,-1.3075885E-2,-1.8663674E-3,-1.5080354E-2,-3.700996E-3,1E0,-1.369441E-2,1E0,1E0,1E0,-1.0778561E-2,1E0,-1.2130684E-2,1E0,7.0244805E-3,1.045588E-2,1.6345712E-3,7.0928955E-3,-8.677665E-3,-1.1789756E-2,3.4387512E-3],"split_indices":[1921,301,1250,389,441,1152,0,1149,1019,0,0,0,0,1475,0,1564,881,1171,0,2016,0,1692,0,0,0,0,0,0,0],"split_type":[0,0,0,0,0,0,0,0,0,0,0,0,0,0,0,0,0,0,0,0,0,0,0,0,0,0,0,0,0],"sum_hessian":[1.2229137E2,1.08636116E2,1.3655257E1,9.963372E1,9.002392E0,1.242936E1,1.2258966E0,6.1208977E1,3.8424744E1,7.7584515E0,1.2439404E0,1.0724243E1,1.7051177E0,5.8017685E1,3.1912901E0,1.9533918E1,1.8890827E1,5.677004E1,1.2476465E0,1.7563848E1,1.9700704E0,1.7647629E1,1.2431972E0,4.2630516E1,1.41395235E1,1.5377627E1,2.1862206E0,1.641341E1,1.2342191E0],"tree_param":{"num_deleted":"0","num_feature":"2048","num_nodes":"29","size_leaf_vector":"1"}},{"base_weights":[-9.857618E-4,5.87022E-1,-2.8776684E-1,9.243208E-1,-1.2864758E-2,-3.0754022E-3,-1.037888E0,1.0606956E0,-1.1365377E-2,2.0234141E-1,-9.5643747E-1,7.0515894E-3,-1.254835E0,1.1786791E0,-5.677568E-3,3.6379868E-1,-1.3179683E-2,-1.128375E0,2.4251388E-3,-1.4016638E0,2.4622239E-3,1.2937822E0,-7.199742E-3,7.739772E-1,-3.0429226E-1,-1.3233314E0,-2.9762336E-3,-1.4717319E0,-5.1392782E-3,1.3918312E-2,-5.8681904E-3,9.718689E-3,-1.2054318E-2,5.917905E-4,-1.0697324E-2,-1.4853146E-2,-4.7277594E-3,-1.5613735E-2,-6.460314E-3],"categories":[],"categories_nodes":[],"categories_segments":[],"categories_sizes":[],"default_left":[0,0,0,0,0,0,0,0,0,0,0,0,0,0,0,0,0,0,0,0,0,0,0,0,0,0,0,0,0,0,0,0,0,0,0,0,0,0,0],"id":29,"left_children":[1,3,5,7,-1,9,11,13,-1,15,17,-1,19,21,-1,23,-1,25,-1,27,-1,29,-1,31,33,35,-1,37,-1,-1,-1,-1,-1,-1,-1,-1,-1,-1,-1],"loss_changes":[2.1394112E1,2.7472528E1,1.8207844E1,1.127511E1,0E0,1.2495713E1,9.755375E0,7.225094E0,0E0,1.3368392E1,2.6052418E0,0E0,5.022209E0,7.9558296E0,0E0,1.3458002E1,0E0,1.2368937E0,0E0,4.55307E-1,0E0,6.470623E0,0E0,1.299258E1,5.369605E0,3.8136768E-1,0E0,2.8793716E-1,0E0,0E0,0E0,0E0,0E0,0E0,0E0,0E0,0E0,0E0,0E0],"parents":[2147483647,0,0,1,1,2,2,3,3,5,5,6,6,7,7,9,9,10,10,12,12,13,13,15,15,17,17,19,19,21,21,23,23,24,24,25,25,27,27],"right_children":[2,4,6,8,-1,10,12,14,-1,16,18,-1,20,22,-1,24,-1,26,-1,28,-1,30,-1,32,34,36,-1,38,-1,-1,-1,-1,-1,-1,-1,-1,-1,-1,-1],"split_conditions":[1E0,1E0,1E0,1E0,-1.2864758E-2,1E0,1E0,1E0,-1.1365377E-2,1E0,1E0,7.0515894E-3,1E0,1E0,-5.677568E-3,1E0,-1.3179683E-2,1E0,2.4251388E-3,1E0,2.4622239E-3,1E0,-7.199742E-3,1E0,1E0,1E0,-2.9762336E-3,1E0,-5.1392782E-3,1.3918312E-2,-5.8681904E-3,9.718689E-3,-1.2054318E-2,5.917905E-4,-1.0697324E-2,-1.4853146E-2,-4.7277594E-3,-1.5613735E-2,-6.460314E-3],"split_indices":[80,1431,1171,589,0,486,807,301,0,1037,1365,0,1683,786,0,389,0,1495,0,1737,0,555,0,1149,588,1385,0,1158,0,0,0,0,0,0,0,0,0,0,0],"split_type":[0,0,0,0,0,0,0,0,0,0,0,0,0,0,0,0,0,0,0,0,0,0,0,0,0,0,0,0,0,0,0,0,0,0,0,0,0,0,0],"sum_hessian":[1.2486876E2,4.0592377E1,8.427638E1,3.482858E1,5.763797E0,6.1818626E1,2.2457756E1,3.3122078E1,1.7064989E0,5.150815E1,1.0310478E1,2.2367055E0,2.022105E1,3.1141998E1,1.9800817E0,4.725081E1,4.2573404E0,9.068815E0,1.2416632E0,1.8479643E1,1.7414064E0,2.966234E1,1.4796578E0,2.9178188E1,1.807262E1,6.864872E0,2.203943E0,1.6518042E1,1.9616013E0,2.843949E1,1.2228508E0,2.6988974E1,2.1892161E0,1.287946E1,5.1931596E0,5.139749E0,1.7251228E0,1.409668E1,2.4213624E0],"tree_param":{"num_deleted":"0","num_feature":"2048","num_nodes":"39","size_leaf_vector":"1"}},{"base_weights":[2.4591444E-2,1.9811064E-1,-1.1958023E0,3.1224462E-1,-1.1799756E0,-1.3993416E0,6.9812518E-3,6.095906E-1,-2.617153E-1,-1.3261565E-2,-2.5673797E-3,-1.5071081E-2,-3.4922718E-3,7.0359766E-1,-1.2811697E-2,7.2561675E-1,-4.9331504E-1,7.8466374E-1,-1.0219925E-2,1.2217053E0,-9.811213E-3,-6.2912005E-1,9.668785E-3,8.718401E-3,-1.0210071E-2,1.7925657E-3,1.4476404E-2,-7.341543E-3,7.622241E-3],"categories":[],"categories_nodes":[],"categories_segments":[],"categories_sizes":[],"default_left":[0,0,0,0,0,0,0,0,0,0,0,0,0,0,0,0,0,0,0,0,0,0,0,0,0,0,0,0,0],"id":30,"left_children":[1,3,5,7,9,11,-1,13,15,-1,-1,-1,-1,17,-1,19,21,23,-1,25,-1,27,-1,-1,-1,-1,-1,-1,-1],"loss_changes":[2.7640911E1,1.8323975E1,7.24168E0,1.8287094E1,8.661661E-1,1.1720085E0,0E0,1.3391472E1,8.806675E0,0E0,0E0,0E0,0E0,1.0256409E1,0E0,7.4852448E0,6.6610413E0,1.1140785E1,0E0,1.2003269E0,0E0,4.7291594E0,0E0,0E0,0E0,0E0,0E0,0E0,0E0],"parents":[2147483647,0,0,1,1,2,2,3,3,4,4,5,5,7,7,8,8,13,13,15,15,16,16,17,17,19,19,21,21],"right_children":[2,4,6,8,10,12,-1,14,16,-1,-1,-1,-1,18,-1,20,22,24,-1,26,-1,28,-1,-1,-1,-1,-1,-1,-1],"split_conditions":[1E0,1E0,1E0,1E0,1E0,1E0,6.9812518E-3,1E0,1E0,-1.3261565E-2,-2.5673797E-3,-1.5071081E-2,-3.4922718E-3,1E0,-1.2811697E-2,1E0,1E0,1E0,-1.0219925E-2,1E0,-9.811213E-3,1E0,9.668785E-3,8.718401E-3,-1.0210071E-2,1.7925657E-3,1.4476404E-2,-7.341543E-3,7.622241E-3],"split_indices":[1921,1431,1100,389,362,802,0,1149,80,0,0,0,0,1110,0,387,1163,194,0,1088,0,1445,0,0,0,0,0,0,0],"split_type":[0,0,0,0,0,0,0,0,0,0,0,0,0,0,0,0,0,0,0,0,0,0,0,0,0,0,0,0,0],"sum_hessian":[1.2840962E2,1.13158134E2,1.5251491E1,1.05217384E2,7.94075E0,1.4007279E1,1.244211E0,6.926951E1,3.5947876E1,6.47855E0,1.4622E0,1.230891E1,1.6983688E0,6.658675E1,2.6827638E0,6.424889E0,2.9522985E1,6.411976E1,2.466987E0,5.198156E0,1.2267336E0,2.753157E1,1.9914155E0,6.1660023E1,2.459734E0,1.2453939E0,3.952762E0,2.6038252E1,1.4933178E0],"tree_param":{"num_deleted":"0","num_feature":"2048","num_nodes":"29","size_leaf_vector":"1"}},{"base_weights":[-3.0788386E-2,1.2035535E-1,-1.1627302E0,2.7080053E-1,-9.477885E-1,-1.4940249E-2,2.766334E-1,4.7792342E-1,-6.8498737E-1,-1.1516473E0,6.6524833E-3,1.2205205E-2,-9.184666E-3,6.086683E-1,-1.0761379E0,3.5591163E-2,-1.1229547E0,-1.2469149E0,-1.2724805E-3,7.210734E-1,-8.8012224E-1,-1.2352561E-2,-3.7611057E-3,8.430713E-1,-5.4784256E-1,-1.3944167E0,2.6037311E-3,-1.3623316E-2,-1.3338376E-3,7.82223E-3,-9.719069E-3,-1.0620238E-2,-9.788075E-4,2.034845E-3,1.0810206E-2,-9.242149E-3,-3.0881332E-4,-1.5384383E-2,-4.550755E-3],"categories":[],"categories_nodes":[],"categories_segments":[],"categories_sizes":[],"default_left":[0,0,0,0,0,0,0,0,0,0,0,0,0,0,0,0,0,0,0,0,0,0,0,0,0,0,0,0,0,0,0,0,0,0,0,0,0,0,0],"id":31,"left_children":[1,3,5,7,9,-1,11,13,15,17,-1,-1,-1,19,21,23,25,27,-1,29,31,-1,-1,33,35,37,-1,-1,-1,-1,-1,-1,-1,-1,-1,-1,-1,-1,-1],"loss_changes":[2.2185968E1,1.8670351E1,7.69631E0,2.036494E1,5.4910765E0,0E0,5.296329E0,1.767768E1,5.858984E0,1.122015E0,0E0,0E0,0E0,1.3673723E1,2.9982376E-1,4.202321E0,4.6811447E0,1.3467255E0,0E0,8.317173E0,7.384262E-1,0E0,0E0,3.4681797E-1,9.862186E-1,6.216183E-1,0E0,0E0,0E0,0E0,0E0,0E0,0E0,0E0,0E0,0E0,0E0,0E0,0E0],"parents":[2147483647,0,0,1,1,2,2,3,3,4,4,6,6,7,7,8,8,9,9,13,13,14,14,15,15,16,16,17,17,19,19,20,20,23,23,24,24,25,25],"right_children":[2,4,6,8,10,-1,12,14,16,18,-1,-1,-1,20,22,24,26,28,-1,30,32,-1,-1,34,36,38,-1,-1,-1,-1,-1,-1,-1,-1,-1,-1,-1,-1,-1],"split_conditions":[1E0,1E0,1E0,1E0,1E0,-1.4940249E-2,1E0,1E0,1E0,1E0,6.6524833E-3,1.2205205E-2,-9.184666E-3,1E0,1E0,1E0,1E0,1E0,-1.2724805E-3,1E0,1E0,-1.2352561E-2,-3.7611057E-3,1E0,1E0,1E0,2.6037311E-3,-1.3623316E-2,-1.3338376E-3,7.82223E-3,-9.719069E-3,-1.0620238E-2,-9.788075E-4,2.034845E-3,1.0810206E-2,-9.242149E-3,-3.0881332E-4,-1.5384383E-2,-4.550755E-3],"split_indices":[1921,878,802,675,129,0,314,1110,1152,835,0,0,0,488,715,917,716,119,0,795,389,0,0,935,1464,1722,0,0,0,0,0,0,0,0,0,0,0,0,0],"split_type":[0,0,0,0,0,0,0,0,0,0,0,0,0,0,0,0,0,0,0,0,0,0,0,0,0,0,0,0,0,0,0,0,0,0,0,0,0,0,0],"sum_hessian":[1.2785939E2,1.1358633E2,1.4273061E1,1.00217445E2,1.3368881E1,1.1571665E1,2.7013965E0,8.277891E1,1.7438538E1,1.2122813E1,1.2460681E0,1.4974464E0,1.2039499E0,7.69162E1,5.862708E0,6.9396358E0,1.0498901E1,1.0892602E1,1.2302105E0,7.199609E1,4.920108E0,4.153927E0,1.7087815E0,2.7242377E0,4.2153983E0,8.7698965E0,1.7290055E0,9.667172E0,1.2254298E0,7.000549E1,1.9906027E0,3.7016602E0,1.2184479E0,1.2417316E0,1.4825062E0,1.9835185E0,2.2318797E0,7.0510335E0,1.7188625E0],"tree_param":{"num_deleted":"0","num_feature":"2048","num_nodes":"39","size_leaf_vector":"1"}},{"base_weights":[4.0131696E-2,2.0586358E-1,-1.2488703E0,3.2498756E-1,-1.1065869E0,-1.4802071E-2,1.3235052E-3,9.484272E-1,4.2227115E-2,-1.2344305E-2,-1.3858498E-3,1.069258E0,-7.49488E-3,2.827844E-1,-9.0094876E-1,1.1698098E0,-7.000155E-3,3.946008E-1,-1.1526122E-2,-1.1587147E0,-3.1672463E-1,1.4482964E-2,2.883523E-3,5.4053618E-3,-7.259039E-3,-5.742572E-3,-1.4557703E-2,3.962474E-3,-6.4722993E-3],"categories":[],"categories_nodes":[],"categories_segments":[],"categories_sizes":[],"default_left":[0,0,0,0,0,0,0,0,0,0,0,0,0,0,0,0,0,0,0,0,0,0,0,0,0,0,0,0,0],"id":32,"left_children":[1,3,5,7,9,-1,-1,11,13,-1,-1,15,-1,17,19,21,-1,23,-1,25,27,-1,-1,-1,-1,-1,-1,-1,-1],"loss_changes":[2.6705507E1,1.7644953E1,4.747944E0,1.796428E1,9.9552727E-1,0E0,0E0,7.329941E0,1.6434326E1,0E0,0E0,6.1772804E0,0E0,9.696495E0,1.8513346E0,6.670273E0,0E0,9.24932E0,0E0,8.732395E-1,1.6433935E0,0E0,0E0,0E0,0E0,0E0,0E0,0E0,0E0],"parents":[2147483647,0,0,1,1,2,2,3,3,4,4,7,7,8,8,11,11,13,13,14,14,15,15,17,17,19,19,20,20],"right_children":[2,4,6,8,10,-1,-1,12,14,-1,-1,16,-1,18,20,22,-1,24,-1,26,28,-1,-1,-1,-1,-1,-1,-1,-1],"split_conditions":[1E0,1E0,1E0,1E0,1E0,-1.4802071E-2,1.3235052E-3,1E0,1E0,-1.2344305E-2,-1.3858498E-3,1E0,-7.49488E-3,1E0,1E0,1E0,-7.000155E-3,1E0,-1.1526122E-2,1E0,1E0,1.4482964E-2,2.883523E-3,5.4053618E-3,-7.259039E-3,-5.742572E-3,-1.4557703E-2,3.962474E-3,-6.4722993E-3],"split_indices":[1921,301,802,80,378,0,0,573,1855,0,0,1477,0,1607,1970,1602,0,486,0,1171,1066,0,0,0,0,0,0,0,0],"split_type":[0,0,0,0,0,0,0,0,0,0,0,0,0,0,0,0,0,0,0,0,0,0,0,0,0,0,0,0,0],"sum_hessian":[1.228055E2,1.09559326E2,1.3246167E1,1.0113247E2,8.426863E0,1.12844925E1,1.9616746E0,3.0821665E1,7.03108E1,7.200642E0,1.2262206E0,2.9119642E1,1.702023E0,5.658019E1,1.3730614E1,2.7874302E1,1.245341E0,5.3163853E1,3.416335E0,8.844838E0,4.8857756E0,2.0693388E1,7.180914E0,4.7495586E1,5.668265E0,3.968996E0,4.875842E0,1.484491E0,3.4012847E0],"tree_param":{"num_deleted":"0","num_feature":"2048","num_nodes":"29","size_leaf_vector":"1"}},{"base_weights":[1.2649127E-2,1.7368895E-1,-1.1582E0,3.168314E-1,-8.598404E-1,-1.432814E0,1.11575145E-2,5.381374E-1,-7.1655977E-1,-1.0245417E0,1.9724106E-3,-4.3215E-3,-1.48919495E-2,8.3323497E-1,-2.340909E-1,-8.7788475E-1,5.171155E-3,-1.1070042E0,-1.5072288E-3,9.105803E-1,-9.594908E-3,7.750849E-1,-7.146438E-1,-1.1360359E0,7.133688E-2,-1.251124E-2,-5.947242E-1,9.92655E-3,-9.4689615E-3,1.2223803E-2,-5.618042E-3,7.752983E-3,-1.02983415E-2,-1.4574451E-2,-3.2055203E-3,3.2851466E-3,-2.6840132E-3,-6.251349E-4,-7.83043E-3],"categories":[],"categories_nodes":[],"categories_segments":[],"categories_sizes":[],"default_left":[0,0,0,0,0,0,0,0,0,0,0,0,0,0,0,0,0,0,0,0,0,0,0,0,0,0,0,0,0,0,0,0,0,0,0,0,0,0,0],"id":33,"left_children":[1,3,5,7,9,11,-1,13,15,17,-1,-1,-1,19,21,23,-1,25,-1,27,-1,29,31,33,35,-1,37,-1,-1,-1,-1,-1,-1,-1,-1,-1,-1,-1,-1],"loss_changes":[2.4396656E1,1.7089848E1,1.1368889E1,2.338733E1,2.6565742E0,1.6874886E-1,0E0,1.9202484E1,4.070015E0,7.236986E-1,0E0,0E0,0E0,9.271854E0,1.2116292E1,4.10919E0,0E0,7.806301E-2,0E0,9.869835E0,0E0,5.572598E0,8.627513E0,2.9356766E0,4.774806E-1,0E0,3.8712728E-1,0E0,0E0,0E0,0E0,0E0,0E0,0E0,0E0,0E0,0E0,0E0,0E0],"parents":[2147483647,0,0,1,1,2,2,3,3,4,4,5,5,7,7,8,8,9,9,13,13,14,14,15,15,17,17,19,19,21,21,22,22,23,23,24,24,26,26],"right_children":[2,4,6,8,10,12,-1,14,16,18,-1,-1,-1,20,22,24,-1,26,-1,28,-1,30,32,34,36,-1,38,-1,-1,-1,-1,-1,-1,-1,-1,-1,-1,-1,-1],"split_conditions":[1E0,1E0,1E0,1E0,1E0,1E0,1.11575145E-2,1E0,1E0,1E0,1.9724106E-3,-4.3215E-3,-1.48919495E-2,1E0,1E0,1E0,5.171155E-3,1E0,-1.5072288E-3,1E0,-9.594908E-3,1E0,1E0,1E0,1E0,-1.251124E-2,1E0,9.92655E-3,-9.4689615E-3,1.2223803E-2,-5.618042E-3,7.752983E-3,-1.02983415E-2,-1.4574451E-2,-3.2055203E-3,3.2851466E-3,-2.6840132E-3,-6.251349E-4,-7.83043E-3],"split_indices":[1921,878,1247,675,1060,650,0,1171,652,893,0,0,0,1141,80,656,0,715,0,1013,0,561,807,1480,2030,0,1431,0,0,0,0,0,0,0,0,0,0,0,0],"split_type":[0,0,0,0,0,0,0,0,0,0,0,0,0,0,0,0,0,0,0,0,0,0,0,0,0,0,0,0,0,0,0,0,0,0,0,0,0,0,0],"sum_hessian":[1.2732173E2,1.12675835E2,1.4645898E1,9.957787E1,1.3097958E1,1.3397811E1,1.2480873E0,8.240885E1,1.7169024E1,1.1358932E1,1.7390256E0,1.1767819E0,1.2221028E1,5.956704E1,2.2841814E1,1.5438557E1,1.730467E0,1.0135578E1,1.2233537E0,5.757509E1,1.9919486E0,7.1705456E0,1.5671268E1,1.1982875E1,3.4556818E0,6.784599E0,3.3509793E0,5.5584606E1,1.9904821E0,5.437068E0,1.7334776E0,2.481438E0,1.318983E1,8.030553E0,3.9523218E0,1.985624E0,1.4700578E0,1.2239395E0,2.12704E0],"tree_param":{"num_deleted":"0","num_feature":"2048","num_nodes":"39","size_leaf_vector":"1"}},{"base_weights":[3.3742204E-2,1.8811534E-1,-1.1697156E0,4.2194086E-1,-5.129781E-1,-1.3974272E0,4.6811816E-3,5.791632E-1,-7.314482E-1,1.3358767E-2,-7.8416455E-1,-1.4597156E-2,-4.2485795E-3,6.7809325E-1,-1.1353621E-2,-2.2264527E-1,-1.1487339E-2,-9.238368E-1,1.0511136E-2,7.725801E-1,-9.8870176E-1,6.4085093E-3,-7.2873616E-1,-1.0515531E0,2.2289916E-3,8.448486E-3,-1.2316871E-2,-3.8892096E-3,-1.1730507E-2,-9.048422E-3,-1.6915704E-3,-1.1466295E-2,1.5108619E-3],"categories":[],"categories_nodes":[],"categories_segments":[],"categories_sizes":[],"default_left":[0,0,0,0,0,0,0,0,0,0,0,0,0,0,0,0,0,0,0,0,0,0,0,0,0,0,0,0,0,0,0,0,0],"id":34,"left_children":[1,3,5,7,9,11,-1,13,15,-1,17,-1,-1,19,-1,21,-1,23,-1,25,27,-1,29,31,-1,-1,-1,-1,-1,-1,-1,-1,-1],"loss_changes":[2.315997E1,1.8298492E1,5.941477E0,1.5522453E1,1.5105308E1,1.4902878E-1,0E0,1.3293285E1,1.9587502E0,0E0,7.4003887E0,0E0,0E0,1.1856064E1,0E0,3.0629122E0,0E0,3.725912E0,0E0,1.0776264E1,1.0049343E-2,0E0,2.6211762E-1,2.6459866E0,0E0,0E0,0E0,0E0,0E0,0E0,0E0,0E0,0E0],"parents":[2147483647,0,0,1,1,2,2,3,3,4,4,5,5,7,7,8,8,10,10,13,13,15,15,17,17,19,19,20,20,22,22,23,23],"right_children":[2,4,6,8,10,12,-1,14,16,-1,18,-1,-1,20,-1,22,-1,24,-1,26,28,-1,30,32,-1,-1,-1,-1,-1,-1,-1,-1,-1],"split_conditions":[1E0,1E0,1E0,1E0,1E0,1E0,4.6811816E-3,1E0,1E0,1.3358767E-2,1E0,-1.4597156E-2,-4.2485795E-3,1E0,-1.1353621E-2,1E0,-1.1487339E-2,1E0,1.0511136E-2,1E0,1E0,6.4085093E-3,1E0,1E0,2.2289916E-3,8.448486E-3,-1.2316871E-2,-3.8892096E-3,-1.1730507E-2,-9.048422E-3,-1.6915704E-3,-1.1466295E-2,1.5108619E-3],"split_indices":[1921,1754,214,878,650,1791,0,753,47,0,782,0,0,623,0,926,0,1508,0,266,140,0,1573,387,0,0,0,0,0,0,0,0,0],"split_type":[0,0,0,0,0,0,0,0,0,0,0,0,0,0,0,0,0,0,0,0,0,0,0,0,0,0,0,0,0,0,0,0,0],"sum_hessian":[1.2247795E2,1.0930109E2,1.3176871E1,8.22632E1,2.7037884E1,1.1697348E1,1.4795238E0,7.2832954E1,9.430245E0,2.956366E0,2.4081518E1,1.0522543E1,1.1748049E0,6.94312E1,3.401758E0,4.940173E0,4.4900723E0,2.2839928E1,1.2415903E0,6.621416E1,3.2170405E0,1.7271019E0,3.213071E0,2.0625763E1,2.214165E0,6.446808E1,1.7460736E0,1.4874172E0,1.7296233E0,1.974628E0,1.238443E0,1.915779E1,1.467975E0],"tree_param":{"num_deleted":"0","num_feature":"2048","num_nodes":"33","size_leaf_vector":"1"}},{"base_weights":[2.5600923E-2,1.889181E-1,-1.2440063E0,3.6092854E-1,-7.774574E-1,-1.410039E0,3.5305624E-3,5.0879884E-1,-6.548723E-1,-9.678535E-1,7.918446E-3,-4.430529E-3,-1.4654566E-2,6.9206756E-1,-6.771035E-1,-8.9310384E-1,4.5450176E-3,-1.162038E0,-5.200511E-2,7.5947654E-1,-1.2299516E-2,2.1573384E-1,-9.8548645E-1,-5.398241E-1,-1.3530831E-2,-1.2666142E0,-5.667111E-4,3.2627322E-3,-4.9163084E-3,8.231488E-3,-1.2094103E-2,8.121774E-3,-6.0354206E-3,-1.1874769E-2,1.7646751E-3,4.9392004E-3,-9.068051E-3,-1.3756042E-2,-1.5930978E-3],"categories":[],"categories_nodes":[],"categories_segments":[],"categories_sizes":[],"default_left":[0,0,0,0,0,0,0,0,0,0,0,0,0,0,0,0,0,0,0,0,0,0,0,0,0,0,0,0,0,0,0,0,0,0,0,0,0,0,0],"id":35,"left_children":[1,3,5,7,9,11,-1,13,15,17,-1,-1,-1,19,21,23,-1,25,27,29,-1,31,33,35,-1,37,-1,-1,-1,-1,-1,-1,-1,-1,-1,-1,-1,-1,-1],"loss_changes":[2.7376781E1,1.9703884E1,4.4888268E0,1.5335144E1,6.1364775E0,9.205818E-2,0E0,1.9539358E1,3.8756495E0,2.8701096E0,0E0,0E0,0E0,1.0845047E1,3.5856571E0,1.0806484E0,0E0,1.4943848E0,8.138815E-1,1.0337894E1,0E0,2.4279122E0,2.3888264E0,3.4704316E0,0E0,1.2690048E0,0E0,0E0,0E0,0E0,0E0,0E0,0E0,0E0,0E0,0E0,0E0,0E0,0E0],"parents":[2147483647,0,0,1,1,2,2,3,3,4,4,5,5,7,7,8,8,9,9,13,13,14,14,15,15,17,17,18,18,19,19,21,21,22,22,23,23,25,25],"right_children":[2,4,6,8,10,12,-1,14,16,18,-1,-1,-1,20,22,24,-1,26,28,30,-1,32,34,36,-1,38,-1,-1,-1,-1,-1,-1,-1,-1,-1,-1,-1,-1,-1],"split_conditions":[1E0,1E0,1E0,1E0,1E0,1E0,3.5305624E-3,1E0,1E0,1E0,7.918446E-3,-4.430529E-3,-1.4654566E-2,1E0,1E0,1E0,4.5450176E-3,1E0,1E0,1E0,-1.2299516E-2,1E0,1E0,1E0,-1.3530831E-2,1E0,-5.667111E-4,3.2627322E-3,-4.9163084E-3,8.231488E-3,-1.2094103E-2,8.121774E-3,-6.0354206E-3,-1.1874769E-2,1.7646751E-3,4.9392004E-3,-9.068051E-3,-1.3756042E-2,-1.5930978E-3],"split_indices":[1921,1066,325,619,1163,650,0,675,1464,656,0,0,0,1287,1152,1911,0,798,461,266,0,378,699,1034,0,448,0,0,0,0,0,0,0,0,0,0,0,0,0],"split_type":[0,0,0,0,0,0,0,0,0,0,0,0,0,0,0,0,0,0,0,0,0,0,0,0,0,0,0,0,0,0,0,0,0,0,0,0,0,0,0],"sum_hessian":[1.2989917E2,1.1584814E2,1.4051041E1,9.88753E1,1.697284E1,1.2833915E1,1.2171258E0,8.674668E1,1.21286125E1,1.54782E1,1.4946389E0,1.1831881E0,1.1650726E1,7.5495995E1,1.12506895E1,1.0144985E1,1.9836277E0,1.2548722E1,2.929477E0,7.352228E1,1.9737163E0,2.9654589E0,8.28523E0,6.9673824E0,3.1776025E0,1.1330859E1,1.2178636E0,1.7131912E0,1.2162858E0,7.17828E1,1.7394774E0,1.7211232E0,1.2443357E0,7.039534E0,1.2456958E0,1.7347859E0,5.2325964E0,1.0094933E1,1.2359264E0],"tree_param":{"num_deleted":"0","num_feature":"2048","num_nodes":"39","size_leaf_vector":"1"}},{"base_weights":[1.6802778E-2,1.6138771E-1,-1.1476849E0,4.5759675E-1,-3.481262E-1,-1.4379291E-2,4.8434436E-2,6.203729E-1,-8.199475E-1,2.8980306E-1,-9.088248E-1,1.1255874E-2,-9.681435E-3,7.255401E-1,-1.2889074E-2,-9.7336787E-1,-1.4474817E-3,1.1333531E0,-1.5883742E-1,-1.030879E0,6.6488683E-3,8.156953E-1,-1.0109193E-2,-1.2383885E-2,-4.576582E-1,1.3064557E-2,1.6659419E-3,-3.7295273E-1,8.633477E-3,-1.1977841E0,4.020999E-3,8.728359E-3,-8.181131E-3,-6.072211E-4,-6.1841547E-3,-5.7781953E-3,1.5947889E-3,-1.2676662E-2,-8.5619E-4],"categories":[],"categories_nodes":[],"categories_segments":[],"categories_sizes":[],"default_left":[0,0,0,0,0,0,0,0,0,0,0,0,0,0,0,0,0,0,0,0,0,0,0,0,0,0,0,0,0,0,0,0,0,0,0,0,0,0,0],"id":36,"left_children":[1,3,5,7,9,-1,11,13,15,17,19,-1,-1,21,-1,23,-1,25,27,29,-1,31,-1,-1,33,-1,-1,35,-1,37,-1,-1,-1,-1,-1,-1,-1,-1,-1],"loss_changes":[2.1148537E1,1.7007431E1,4.886631E0,1.5278807E1,1.5146042E1,0E0,5.1158977E0,1.3699287E1,7.3522806E-1,7.832991E0,4.985342E0,0E0,0E0,1.0356907E1,0E0,3.5128164E-1,0E0,9.7785854E-1,3.4031818E0,5.544203E0,0E0,6.169632E0,0E0,0E0,2.0915836E-1,0E0,0E0,1.4379686E0,0E0,1.3844929E0,0E0,0E0,0E0,0E0,0E0,0E0,0E0,0E0,0E0],"parents":[2147483647,0,0,1,1,2,2,3,3,4,4,6,6,7,7,8,8,9,9,10,10,13,13,15,15,17,17,18,18,19,19,21,21,24,24,27,27,29,29],"right_children":[2,4,6,8,10,-1,12,14,16,18,20,-1,-1,22,-1,24,-1,26,28,30,-1,32,-1,-1,34,-1,-1,36,-1,38,-1,-1,-1,-1,-1,-1,-1,-1,-1],"split_conditions":[1E0,1E0,1E0,1E0,1E0,-1.4379291E-2,1E0,1E0,1E0,1E0,1E0,1.1255874E-2,-9.681435E-3,1E0,-1.2889074E-2,1E0,-1.4474817E-3,1E0,1E0,1E0,6.6488683E-3,1E0,-1.0109193E-2,-1.2383885E-2,1E0,1.3064557E-2,1.6659419E-3,1E0,8.633477E-3,1E0,4.020999E-3,8.728359E-3,-8.181131E-3,-6.072211E-4,-6.1841547E-3,-5.7781953E-3,1.5947889E-3,-1.2676662E-2,-8.5619E-4],"split_indices":[1921,389,802,301,1019,0,314,1149,875,807,1998,0,0,194,0,715,0,881,1163,525,0,530,0,0,47,0,0,1385,0,488,0,0,0,0,0,0,0,0,0],"split_type":[0,0,0,0,0,0,0,0,0,0,0,0,0,0,0,0,0,0,0,0,0,0,0,0,0,0,0,0,0,0,0,0,0,0,0,0,0,0,0],"sum_hessian":[1.2350935E2,1.1063422E2,1.2875139E1,7.002605E1,4.060817E1,1.0198308E1,2.676831E0,6.2568398E1,7.4576464E0,1.9221846E1,2.1386326E1,1.2476283E0,1.4292028E0,5.9889545E1,2.6788504E0,5.717013E0,1.7406336E0,6.1438193E0,1.3078027E1,2.0167137E1,1.2191888E0,5.7437695E1,2.4518516E0,2.8507152E0,2.8662975E0,4.912786E0,1.2310333E0,1.133818E1,1.7398467E0,1.8210243E1,1.9568932E0,5.594679E1,1.4909078E0,1.223356E0,1.6429414E0,8.126177E0,3.2120025E0,1.700211E1,1.2081345E0],"tree_param":{"num_deleted":"0","num_feature":"2048","num_nodes":"39","size_leaf_vector":"1"}},{"base_weights":[5.072635E-2,1.9534463E-1,-1.1357639E0,4.2041638E-1,-5.037465E-1,-1.4320176E-2,2.9342E-3,5.4600734E-1,-1.0360013E0,-6.5356314E-1,1.1265127E-2,7.490689E-1,-8.962178E-2,-1.1740878E-2,-2.0936471E-3,-8.033365E-1,1.1034665E-2,8.912916E-1,-6.396224E-1,-1.0200516E0,3.6607307E-1,-9.068064E-1,6.3881553E-3,9.602966E-3,-5.226056E-3,-1.2733441E-2,-3.9471596E-4,-4.267259E-3,-1.3577854E-2,7.176236E-3,-1.2139131E-2,-9.902295E-3,3.283681E-3],"categories":[],"categories_nodes":[],"categories_segments":[],"categories_sizes":[],"default_left":[0,0,0,0,0,0,0,0,0,0,0,0,0,0,0,0,0,0,0,0,0,0,0,0,0,0,0,0,0,0,0,0,0],"id":37,"left_children":[1,3,5,7,9,-1,-1,11,13,15,-1,17,19,-1,-1,21,-1,23,25,27,29,31,-1,-1,-1,-1,-1,-1,-1,-1,-1,-1,-1],"loss_changes":[2.1800467E1,1.7983719E1,6.2672443E0,1.6293587E1,7.5658045E0,0E0,0E0,1.0368948E1,5.72772E-1,7.792182E0,0E0,1.2538189E1,8.94553E0,0E0,0E0,4.2738647E0,0E0,5.9055634E0,2.3122187E0,8.054137E-1,8.817826E0,2.7482185E0,0E0,0E0,0E0,0E0,0E0,0E0,0E0,0E0,0E0,0E0,0E0],"parents":[2147483647,0,0,1,1,2,2,3,3,4,4,7,7,8,8,9,9,11,11,12,12,15,15,17,17,18,18,19,19,20,20,21,21],"right_children":[2,4,6,8,10,-1,-1,12,14,16,-1,18,20,-1,-1,22,-1,24,26,28,30,32,-1,-1,-1,-1,-1,-1,-1,-1,-1,-1,-1],"split_conditions":[1E0,1E0,1E0,1E0,1E0,-1.4320176E-2,2.9342E-3,1E0,1E0,1E0,1.1265127E-2,1E0,1E0,-1.1740878E-2,-2.0936471E-3,1E0,1.1034665E-2,1E0,1E0,1E0,1E0,1E0,6.3881553E-3,9.602966E-3,-5.226056E-3,-1.2733441E-2,-3.9471596E-4,-4.267259E-3,-1.3577854E-2,7.176236E-3,-1.2139131E-2,-9.902295E-3,3.283681E-3],"split_indices":[1921,1754,802,101,1536,0,0,1171,926,782,0,1141,1750,0,0,0,0,692,314,378,623,917,0,0,0,0,0,0,0,0,0,0,0],"split_type":[0,0,0,0,0,0,0,0,0,0,0,0,0,0,0,0,0,0,0,0,0,0,0,0,0,0,0,0,0,0,0,0,0],"sum_hessian":[1.24758095E2,1.1194836E2,1.2809741E1,8.4985855E1,2.6962494E1,1.0608694E1,2.2010465E0,7.881456E1,6.171296E0,2.5241932E1,1.7205635E0,5.9596928E1,1.9217634E1,4.927806E0,1.2434903E0,2.375941E1,1.482521E0,5.4385246E1,5.211681E0,5.910738E0,1.3306895E1,2.2515226E1,1.2441838E0,5.216039E1,2.22486E0,1.9893472E0,3.2223334E0,2.9651337E0,2.9456043E0,1.133143E1,1.9754652E0,2.1276527E1,1.2386985E0],"tree_param":{"num_deleted":"0","num_feature":"2048","num_nodes":"33","size_leaf_vector":"1"}},{"base_weights":[-1.2402241E-2,1.42311E-1,-1.164318E0,2.6714173E-1,-1.0122683E0,-1.440896E-2,3.0261117E-3,9.3222773E-1,6.3531514E-4,-1.0927554E0,-2.088816E-3,1.1495008E0,-4.3848518E-1,2.26647E-1,-1.1280411E0,-1.2801502E-2,-5.179113E-1,1.2910744E0,-2.1776022E-2,-7.5557106E-3,-9.2054E-3,4.0420344E-1,-7.243049E-1,-1.3694602E0,-3.449004E-5,-6.5628317E-4,-6.881795E-3,1.3514683E-2,1.3456398E-3,6.342708E-3,-7.3473463E-3,2.139341E-3,-2.2478914E-3,8.503064E-3,-9.570404E-5,-8.687547E-3,1.7176473E-3,-1.518405E-2,-4.906119E-3],"categories":[],"categories_nodes":[],"categories_segments":[],"categories_sizes":[],"default_left":[0,0,0,0,0,0,0,0,0,0,0,0,0,0,0,0,0,0,0,0,0,0,0,0,0,0,0,0,0,0,0,0,0,0,0,0,0,0,0],"id":38,"left_children":[1,3,5,7,9,-1,-1,11,13,15,-1,17,19,21,23,-1,25,27,29,31,-1,33,35,37,-1,-1,-1,-1,-1,-1,-1,-1,-1,-1,-1,-1,-1,-1,-1],"loss_changes":[2.247247E1,1.6302696E1,6.4932117E0,1.793266E1,4.8704433E-1,0E0,0E0,9.123846E0,1.8936714E1,3.9466572E-1,0E0,4.216633E0,9.660505E-1,1.0735468E1,3.3578043E0,0E0,2.7005875E-1,1.3933029E0,2.200042E0,2.1559763E-1,0E0,9.746493E0,1.4551129E0,5.8940697E-1,0E0,0E0,0E0,0E0,0E0,0E0,0E0,0E0,0E0,0E0,0E0,0E0,0E0,0E0,0E0],"parents":[2147483647,0,0,1,1,2,2,3,3,4,4,7,7,8,8,9,9,11,11,12,12,13,13,14,14,16,16,17,17,18,18,19,19,21,21,22,22,23,23],"right_children":[2,4,6,8,10,-1,-1,12,14,16,-1,18,20,22,24,-1,26,28,30,32,-1,34,36,38,-1,-1,-1,-1,-1,-1,-1,-1,-1,-1,-1,-1,-1,-1,-1],"split_conditions":[1E0,1E0,1E0,1E0,1E0,-1.440896E-2,3.0261117E-3,1E0,1E0,1E0,-2.088816E-3,1E0,1E0,1E0,1E0,-1.2801502E-2,1E0,1E0,1E0,1E0,-9.2054E-3,1E0,1E0,1E0,-3.449004E-5,-6.5628317E-4,-6.881795E-3,1.3514683E-2,1.3456398E-3,6.342708E-3,-7.3473463E-3,2.139341E-3,-2.2478914E-3,8.503064E-3,-9.570404E-5,-8.687547E-3,1.7176473E-3,-1.518405E-2,-4.906119E-3],"split_indices":[1921,301,802,80,45,0,0,1279,736,715,0,1452,1,1855,656,0,84,1182,119,66,0,935,656,798,0,0,0,0,0,0,0,0,0,0,0,0,0,0,0],"split_type":[0,0,0,0,0,0,0,0,0,0,0,0,0,0,0,0,0,0,0,0,0,0,0,0,0,0,0,0,0,0,0,0,0,0,0,0,0,0,0],"sum_hessian":[1.24166626E2,1.1023718E2,1.3929445E1,1.0017509E2,1.0062098E1,1.1734705E1,2.1947408E0,2.79431E1,7.223199E1,8.818439E0,1.2436585E0,2.4259144E1,3.6839564E0,6.0846897E1,1.1385087E1,5.725136E0,3.0933032E0,2.1551865E1,2.7072785E0,2.4814003E0,1.202556E0,5.17579E1,9.088997E0,9.19371E0,2.1913767E0,1.2249396E0,1.8683636E0,2.0322056E1,1.2298087E0,1.4673902E0,1.2398883E0,1.2361834E0,1.245217E0,2.4398302E1,2.7359598E1,7.8534703E0,1.2355269E0,7.239122E0,1.9545888E0],"tree_param":{"num_deleted":"0","num_feature":"2048","num_nodes":"39","size_leaf_vector":"1"}},{"base_weights":[-1.810545E-2,1.4230672E-1,-1.255518E0,4.4302768E-1,-4.302086E-1,-1.4292599E-2,-6.902141E-5,5.871938E-1,-7.835376E-1,-6.041111E-1,1.1638366E-2,6.64011E-1,-1.1035557E-2,-2.4220283E-1,-1.3141166E-2,5.987669E-1,-8.0398136E-1,7.582956E-1,-8.8739216E-1,2.288501E-3,-6.850328E-3,1.0992907E-2,-6.088919E-3,-8.9229095E-1,6.6785365E-3,8.49402E-3,-9.52696E-3,-1.0767253E-2,-3.3969064E-3,-9.779306E-3,2.6541788E-3],"categories":[],"categories_nodes":[],"categories_segments":[],"categories_sizes":[],"default_left":[0,0,0,0,0,0,0,0,0,0,0,0,0,0,0,0,0,0,0,0,0,0,0,0,0,0,0,0,0,0,0],"id":39,"left_children":[1,3,5,7,9,-1,-1,11,13,15,-1,17,-1,19,-1,21,23,25,27,-1,-1,-1,-1,29,-1,-1,-1,-1,-1,-1,-1],"loss_changes":[2.369284E1,1.8399944E1,2.9613628E0,1.2808964E1,1.0940482E1,0E0,0E0,8.923161E0,1.9143591E0,8.645088E0,0E0,9.587616E0,0E0,1.2151004E0,0E0,3.9403114E0,4.4360485E0,9.849316E0,4.4108868E-2,0E0,0E0,0E0,0E0,3.0654259E0,0E0,0E0,0E0,0E0,0E0,0E0,0E0],"parents":[2147483647,0,0,1,1,2,2,3,3,4,4,7,7,8,8,9,9,11,11,13,13,15,15,16,16,17,17,18,18,23,23],"right_children":[2,4,6,8,10,-1,-1,12,14,16,-1,18,-1,20,-1,22,24,26,28,-1,-1,-1,-1,30,-1,-1,-1,-1,-1,-1,-1],"split_conditions":[1E0,1E0,1E0,1E0,1E0,-1.4292599E-2,-6.902141E-5,1E0,1E0,1E0,1.1638366E-2,1E0,-1.1035557E-2,1E0,-1.3141166E-2,1E0,1E0,1E0,1E0,2.288501E-3,-6.850328E-3,1.0992907E-2,-6.088919E-3,1E0,6.6785365E-3,8.49402E-3,-9.52696E-3,-1.0767253E-2,-3.3969064E-3,-9.779306E-3,2.6541788E-3],"split_indices":[1921,389,1279,623,1163,0,0,250,1104,807,0,488,0,84,0,350,1597,116,64,0,0,0,0,139,0,0,0,0,0,0,0],"split_type":[0,0,0,0,0,0,0,0,0,0,0,0,0,0,0,0,0,0,0,0,0,0,0,0,0,0,0,0,0,0,0],"sum_hessian":[1.1746168E2,1.04765396E2,1.2696281E1,6.883507E1,3.5930325E1,1.1018419E1,1.6778623E0,6.2061813E1,6.7732544E0,3.295601E1,2.9743176E0,5.9945526E1,2.116287E0,4.073582E0,2.6996722E0,4.411362E0,2.8544645E1,5.6993065E1,2.9524617E0,2.2080336E0,1.8655487E0,3.1822057E0,1.2291563E0,2.7300388E1,1.2442579E0,5.458984E1,2.4032257E0,1.4762452E0,1.4762167E0,2.5564577E1,1.7358115E0],"tree_param":{"num_deleted":"0","num_feature":"2048","num_nodes":"31","size_leaf_vector":"1"}},{"base_weights":[-1.1918471E-2,4.222012E-1,-3.8537762E-1,5.365656E-1,-1.169791E-2,-5.0766516E-1,1.0989273E0,6.3793695E-1,-1.1884791E-2,-6.339181E-1,9.4992024E-1,1.3539086E-2,1.3042047E-3,7.6962036E-1,-7.0646983E-1,-7.280044E-1,1.2127209E-2,-1.8597764E-3,1.3276678E-2,9.037073E-1,-3.9807606E-1,-2.4450386E-1,-1.1105824E-2,-8.1707984E-1,1.1537199E-2,9.782214E-3,-7.2951517E-3,-6.232245E-3,-3.7026271E-4,-7.476513E-3,3.0751475E-3,-8.918062E-3,1.1009656E-2],"categories":[],"categories_nodes":[],"categories_segments":[],"categories_sizes":[],"default_left":[0,0,0,0,0,0,0,0,0,0,0,0,0,0,0,0,0,0,0,0,0,0,0,0,0,0,0,0,0,0,0,0,0],"id":40,"left_children":[1,3,5,7,-1,9,11,13,-1,15,17,-1,-1,19,21,23,-1,-1,-1,25,27,29,-1,31,-1,-1,-1,-1,-1,-1,-1,-1,-1],"loss_changes":[2.0285738E1,1.1164904E1,1.2763527E1,1.0320436E1,0E0,1.2160723E1,1.1654444E0,9.802309E0,0E0,1.102998E1,2.5669756E0,0E0,0E0,7.892599E0,6.967864E-1,1.0362055E1,0E0,0E0,0E0,6.002762E0,4.361909E-1,1.2582805E0,0E0,8.756252E0,0E0,0E0,0E0,0E0,0E0,0E0,0E0,0E0,0E0],"parents":[2147483647,0,0,1,1,2,2,3,3,5,5,6,6,7,7,9,9,10,10,13,13,14,14,15,15,19,19,20,20,21,21,23,23],"right_children":[2,4,6,8,-1,10,12,14,-1,16,18,-1,-1,20,22,24,-1,-1,-1,26,28,30,-1,32,-1,-1,-1,-1,-1,-1,-1,-1,-1],"split_conditions":[1E0,1E0,1E0,1E0,-1.169791E-2,1E0,1E0,1E0,-1.1884791E-2,1E0,1E0,1.3539086E-2,1.3042047E-3,1E0,1E0,1E0,1.2127209E-2,-1.8597764E-3,1.3276678E-2,1E0,1E0,1E0,-1.1105824E-2,1E0,1.1537199E-2,9.782214E-3,-7.2951517E-3,-6.232245E-3,-3.7026271E-4,-7.476513E-3,3.0751475E-3,-8.918062E-3,1.1009656E-2],"split_indices":[1019,849,407,194,0,1870,675,1745,0,782,695,0,0,1888,1171,1599,0,0,0,655,1895,1855,0,554,0,0,0,0,0,0,0,0,0],"split_type":[0,0,0,0,0,0,0,0,0,0,0,0,0,0,0,0,0,0,0,0,0,0,0,0,0,0,0,0,0,0,0,0,0],"sum_hessian":[1.23119736E2,5.6875504E1,6.624423E1,5.3682087E1,3.1934166E0,6.1809875E1,4.434358E0,5.129779E1,2.3842964E0,5.7402855E1,4.407022E0,3.195212E0,1.2391462E0,4.7110863E1,4.1869273E0,5.5196365E1,2.2064881E0,1.226517E0,3.1805053E0,4.2461117E1,4.6497455E0,2.702534E0,1.4843936E0,5.3241833E1,1.9545333E0,4.0991947E1,1.4691674E0,2.416614E0,2.2331314E0,1.2284478E0,1.474086E0,5.1760315E1,1.4815202E0],"tree_param":{"num_deleted":"0","num_feature":"2048","num_nodes":"33","size_leaf_vector":"1"}},{"base_weights":[-5.183285E-2,9.601437E-2,-1.2474773E0,3.5400832E-1,-6.330708E-1,-1.4152657E-2,-1.3948982E-3,4.7524703E-1,-1.0164801E0,1.1563932E-2,-8.0054975E-1,9.4982976E-1,1.4764261E-1,-1.1663023E-2,-2.532743E-3,-9.2232245E-1,1.0042629E-2,1.0971233E0,-6.934363E-3,4.4555083E-1,-5.311298E-1,-1.0236804E0,6.333786E-3,1.1847062E-2,-3.3230085E-3,7.431142E-3,-5.2021667E-3,7.572972E-3,-7.5814323E-3,-1.1227126E-2,1.0680795E-3],"categories":[],"categories_nodes":[],"categories_segments":[],"categories_sizes":[],"default_left":[0,0,0,0,0,0,0,0,0,0,0,0,0,0,0,0,0,0,0,0,0,0,0,0,0,0,0,0,0,0,0],"id":41,"left_children":[1,3,5,7,9,-1,-1,11,13,-1,15,17,19,-1,-1,21,-1,23,-1,25,27,29,-1,-1,-1,-1,-1,-1,-1,-1,-1],"loss_changes":[2.2285835E1,2.1389528E1,2.3812313E0,1.4399272E1,9.847368E0,0E0,0E0,1.1929018E1,5.193825E-1,0E0,7.0386887E0,8.389576E0,9.762779E0,0E0,0E0,4.8388557E0,0E0,4.0634575E0,0E0,9.95165E0,4.910493E0,2.9559555E0,0E0,0E0,0E0,0E0,0E0,0E0,0E0,0E0,0E0],"parents":[2147483647,0,0,1,1,2,2,3,3,4,4,7,7,8,8,10,10,11,11,12,12,15,15,17,17,19,19,20,20,21,21],"right_children":[2,4,6,8,10,-1,-1,12,14,-1,16,18,20,-1,-1,22,-1,24,-1,26,28,30,-1,-1,-1,-1,-1,-1,-1,-1,-1],"split_conditions":[1E0,1E0,1E0,1E0,1E0,-1.4152657E-2,-1.3948982E-3,1E0,1E0,1.1563932E-2,1E0,1E0,1E0,-1.1663023E-2,-2.532743E-3,1E0,1.0042629E-2,1E0,-6.934363E-3,1E0,1E0,1E0,6.333786E-3,1.1847062E-2,-3.3230085E-3,7.431142E-3,-5.2021667E-3,7.572972E-3,-7.5814323E-3,-1.1227126E-2,1.0680795E-3],"split_indices":[1921,1754,802,1431,650,0,0,80,1,0,693,1279,389,0,0,1132,0,2008,0,1171,807,1365,0,0,0,0,0,0,0,0,0],"split_type":[0,0,0,0,0,0,0,0,0,0,0,0,0,0,0,0,0,0,0,0,0,0,0,0,0,0,0,0,0,0,0],"sum_hessian":[1.2439299E2,1.115224E2,1.2870589E1,8.2753654E1,2.8768744E1,1.0937009E1,1.9335802E0,7.662807E1,6.125587E0,1.9567474E0,2.6811996E1,3.0518398E1,4.610967E1,4.6789217E0,1.4466652E0,2.5575363E1,1.2366331E0,2.8312933E1,2.205466E0,3.228404E1,1.3825633E1,2.4332047E1,1.2433152E0,2.6839628E1,1.4733038E0,2.4856138E1,7.427899E0,1.7211636E0,1.2104469E1,2.2378538E1,1.9535086E0],"tree_param":{"num_deleted":"0","num_feature":"2048","num_nodes":"31","size_leaf_vector":"1"}},{"base_weights":[-6.244801E-4,1.340506E-1,-1.1542829E0,3.7980726E-1,-5.788386E-1,-1.329678E0,1.648474E-3,5.6800735E-1,-2.786491E-1,1.19137475E-2,-7.6674527E-1,-1.3938403E-2,